4039 64
3437 0.06845015 -0.21321847 0.12673394 0.56636447 -0.48671615 -0.10337153 -0.030313943 -0.23688145 -0.3270718 0.028676638 -0.3719877 -0.45584053 0.35985565 0.2097065 0.20528239 -0.18832344 -0.32237896 -0.42474467 0.5866778 0.08538457 -0.74492973 0.17844892 0.6443786 0.41499472 0.034422353 -0.43635947 0.07500277 -0.1664393 0.23896068 0.06500151 0.1578512 0.4983472 -0.27939552 -0.18130475 -0.10967689 0.24213766 0.5528012 0.056959078 0.21925946 0.17101732 0.12033154 -0.09595801 -0.7075 0.05238203 -0.25074926 0.082877286 -0.33993962 -0.10372522 -0.271083 0.22882502 0.1912999 -0.2824847 -0.6497702 -0.04414848 0.18678036 0.11444794 0.014387722 -0.10680262 -0.84128684 -0.026541533 -0.11094684 0.4065293 -0.5984861 -0.07663248
107 0.033489432 0.20554507 -0.120797254 0.49533468 -0.44434506 0.095771685 -0.14767013 0.29429328 -0.18951197 0.17492522 0.10875704 0.065472744 0.48114932 -0.08754286 -0.038695406 -0.46402067 -0.61189884 0.055807985 -0.030814938 -0.17158842 0.11153649 -0.08022498 0.2750407 0.011395043 0.15038466 0.027510412 -0.03917056 -0.13205235 -0.2119347 -0.067953855 0.26800433 -0.36293918 -0.04365736 -0.15559442 -0.087398894 0.13795438 -0.113083966 -0.16475679 0.07095239 0.17606829 -0.5167336 0.26982716 -0.45874986 0.025576713 0.08551134 0.049900677 0.6329016 0.28371158 0.38593897 0.17691995 0.3409787 -0.2672329 -0.37395102 0.18417783 0.04866967 0.30117166 -0.25162122 0.04516264 0.108704366 -0.33946058 0.1464104 -0.1295037 0.34599343 -0.18656074
1684 -0.18478023 -0.32943693 0.3186889 -0.050663132 -0.18317035 -0.1169824 0.15378426 -0.36448675 -0.062666886 0.0037802546 0.3996959 -0.26425228 -0.20794638 -0.29094252 -0.1544352 0.24502207 -0.32462662 0.38897142 0.30111298 -0.44816524 0.06381068 -0.042191587 0.081496365 0.10930699 -0.18589282 -0.17266725 0.20387079 -0.08389098 0.0358776 -0.102351084 0.01662374 -0.06455765 -0.57785714 -0.09909623 -0.5505866 -0.01692871 0.06482832 -0.121189535 0.08047799 -0.2514672 0.24868333 0.40750873 -0.15189852 -0.21074484 0.46577606 -0.01678792 -0.37426725 0.24680926 0.21730714 -0.10719371 -0.23173591 -0.6968117 -0.47810212 0.118068196 0.18598782 -0.41245854 -0.33118796 -0.024445182 -0.20497273 0.009045203 -0.038118925 -0.13814035 0.75041574 0.11249413
0 0.016184188 -0.25494444 0.11127744 -0.074545324 -0.75307053 -0.55476797 -0.2509186 0.206494 -0.023850363 0.6108974 0.55553204 0.113992736 -0.012613896 -0.12790859 -0.28806812 0.5976982 0.6518382 -0.18664855 0.25950623 0.37563887 -0.8180402 -0.6266757 -0.07350156 -0.24767809 -0.08815116 -0.100057125 0.600509 -0.092573814 -0.36261874 -0.13538404 -0.10298923 -0.45007735 -0.49568537 -0.6419896 -0.4952154 0.15947473 0.007169302 -0.41313404 0.6435913 0.26769027 0.029133542 0.06566421 -0.4326984 0.2464517 0.1551186 -0.5339265 0.6423484 0.659557 -0.21664752 -0.2365667 0.49773926 -0.3352549 -0.19019513 0.32199597 0.19351208 0.09726203 -0.59084696 -0.27205652 -0.27230057 0.03820232 0.064538084 0.42186207 -0.44850415 0.3219719
1912 -0.1274816 -0.34104654 0.06831229 0.08213368 -0.3123967 -0.13663961 -0.18411043 0.13334374 -0.14299373 0.31886536 -0.2750023 -0.15968803 0.42635274 -0.68840027 -0.1026903 0.08141542 0.876453 0.07165622 -0.17849603 0.11560138 0.16501518 -0.47812873 0.40130535 -0.3061181 -0.4666179 -0.028225185 -0.13436182 -0.7047403 0.15655187 0.502845 -0.15845564 -0.3517024 -0.23316672 -0.17991804 -0.44343975 0.23533408 -0.04249301 0.18041788 -0.010691513 -0.06949038 0.06669765 -0.110090904 -0.40103254 -0.15318671 0.037011005 0.21128996 -0.5498407 0.092263 0.13813637 0.35310942 0.46774223 -0.04661421 -0.5911323 0.51300925 0.055938903 0.3152939 0.16890007 0.4771905 0.012261946 0.2661248 -0.6654918 0.09577675 0.22510123 -0.09168226
686 -0.747167 -0.6433822 -0.3141719 0.012487445 -0.45275104 -0.28094453 0.13681243 0.5960799 -0.37985158 1.1552607 0.38304645 -0.00055869354 0.7307436 -0.79149187 0.28970715 -0.10046638 -0.53892136 -0.6757708 -0.09418867 0.3469456 -0.059794296 -0.1365706 0.26417622 0.32571205 -0.63360703 0.058357302 0.5300287 0.62416875 0.42552966 0.27688596 0.4604634 -0.5521045 -0.1776818 -0.82542425 -0.13567749 0.9232035 0.2912659 -0.3005248 -0.18867892 0.34303454 0.043862388 0.1625736 -0.831013 -0.85194534 -0.4085002 0.0895331 -0.014515555 0.13337387 -0.8474358 0.03484016 -0.5901396 0.28880328 -0.11954251 0.02055689 0.11066346 -0.5855101 -0.41009718 -0.13349426 -0.4207151 -0.43868333 -0.028420866 0.2245552 0.53657836 -0.20492987
3980 0.59877074 -1.3573276 -0.73074186 0.05123538 -0.8929111 0.09929935 0.741313 -0.11951973 -0.0870198 1.2704101 1.2420254 -2.0384476 -1.0614843 -0.67953545 0.14918013 -0.7534067 -0.8463922 -0.5253437 -0.31040546 -0.14650042 -0.092490174 -0.035372857 0.4626764 -0.43240494 -0.16625138 -0.48489156 0.23948263 0.037971217 -0.31066433 0.23303063 -1.4347863 -0.27296433 -0.57479924 0.22790316 -0.005139855 0.2752602 1.0316672 -1.116114 -0.026627826 -0.7393765 -0.84339917 0.8964938 0.15398906 -0.10305719 0.7754545 0.21222301 0.4258716 0.26563838 -0.29001445 1.1694436 0.84176224 0.28772384 -0.8125962 0.67651 -0.29986233 0.64814997 0.17872639 -0.87870985 -0.109134525 0.49617645 -0.9585226 -0.3186559 -0.3532251 0.91355205
348 -0.6193466 0.10979814 -0.50376505 -0.06589436 0.044404592 0.09058122 -0.45961076 -0.19948678 -0.026007595 0.61679906 0.057848047 -0.7732819 0.38058063 0.23108472 -0.08644191 0.04957841 -0.25854245 -0.1590968 0.052368276 0.11783849 -0.15104994 -0.19325443 0.3373132 -0.3745899 -0.6459914 -0.3817611 1.2141702 -1.0376437 -0.13465269 0.24798617 0.09741419 0.49932927 0.110583015 -0.34399554 -0.26786938 0.72569025 -0.24288054 -0.558886 0.3783212 -0.32773438 -0.60213006 0.22820742 -0.02060892 0.17901693 -0.25329435 -0.20656745 0.6731243 0.39174065 -0.45934874 -0.07968042 0.7359794 -0.41447127 -0.44763425 -0.18352637 0.26436666 -0.49356374 0.40314204 -0.034669183 -0.0073640216 0.2536829 0.31663948 -0.5262642 0.2916701 0.10049912
414 0.029699674 -0.06711184 -0.44354308 0.48487443 0.34199336 0.67433673 -0.021246914 0.10471592 -0.36973336 -0.110124975 -0.22218071 -0.62445146 0.34560725 -0.72661304 0.121936634 0.21015419 -0.43086043 -0.75534815 0.17949091 -0.2442673 -0.8060897 0.052803706 0.0076302593 -0.3403542 -0.5682634 -0.8098858 0.2552066 -0.70708406 -0.42028 -0.2842379 -0.34076864 -0.4079107 -0.6887608 -0.5749799 -0.14544581 0.82552934 -0.2714913 -0.16369788 -0.025960939 -0.20590487 0.2120248 0.42432666 0.08486115 -0.43271643 0.060629003 0.3617807 0.47614127 0.09044816 -0.1693753 -0.3695979 0.53702813 0.23489046 -0.71929556 0.8152454 0.4076248 -0.35442862 0.056012627 -0.500724 0.5250146 0.20489568 0.5186131 -0.6636917 -0.057860427 -0.44774833
483 0.053210642 0.526238 -0.62754065 0.18921295 -0.15686491 0.31454334 -0.17867462 -0.304011 -0.22213306 0.06681211 -0.37419617 0.05183462 0.5174535 -0.42071578 0.20724866 -0.06808911 -0.41493997 -0.11913365 -0.16213958 0.18574901 0.14491309 -0.027223952 -0.18473634 -0.16010562 -0.2518025 -0.2564201 0.32576188 0.22397067 0.16376351 -0.11752736 -0.21944919 -0.28757343 -0.016184837 -0.19356209 -0.12368618 0.7034551 0.0600846 -0.07820586 0.0803256 -0.11329816 -0.5797814 0.25685492 -0.6506355 0.53992313 0.36797774 -0.119829565 0.38422337 0.27965236 0.20847759 0.25862715 0.8801733 -0.44761384 -0.3922061 0.10182526 0.12980856 -0.30354455 0.07291212 -0.3383406 -0.09545253 0.012179738 0.20051378 -0.66600305 -0.13562402 -0.5174631
3830 0.48436537 -0.5992223 -0.4765375 0.21956328 -1.0139202 0.014854487 -0.13245112 -0.13418362 -0.5938271 0.10852066 -0.39706412 -0.36884034 0.79174215 1.0574068 0.040613733 -0.4535627 -0.78273267 -0.6014904 0.4866786 0.3624061 -1.2007222 0.030825172 0.5490416 0.008259749 -0.44637462 0.07995826 -0.14851402 0.17153703 0.5373047 0.16229479 -0.0103246635 0.54732716 -0.41275752 0.0156029565 -0.03928758 0.38635674 0.41893753 0.09432265 -0.16209804 -0.49256536 0.5454098 0.019856341 -0.8760307 0.18784194 -0.10983786 -0.20252725 0.043769486 -0.13628338 -0.5235036 0.019116782 -0.03469734 -0.66833633 -0.70016325 -0.039089542 -0.17562556 -0.5243202 -0.39290154 0.12222019 -0.3335623 -0.15405957 -0.11412735 0.50306 -0.754158 -0.27532384
3596 -0.050621323 -0.2939399 -0.09086841 -0.24143578 -1.1482079 0.14821836 -0.06273357 0.07132631 -0.4680699 -0.11688834 -0.06004097 -0.88670444 0.8963733 0.8799187 0.17869642 0.3378602 -0.5063687 -0.072025105 0.28080103 0.14286043 -0.69887507 -0.10070695 0.9476662 0.18528438 -0.28968892 -0.058910448 -0.3704335 -0.4569482 0.4736095 -0.0010334032 0.513947 0.4489089 -0.6421631 -0.7317511 0.22684366 0.37150764 0.9128761 0.13071887 -0.40355614 -0.4672133 0.429181 -0.08576864 -0.78731436 0.16194811 0.020891944 -0.58985245 -0.104884125 -0.20423114 -0.28565538 0.18438067 -0.029055033 -0.2539653 -0.92201173 0.2494089 -0.17179546 -0.14462489 -0.11986503 -0.21997495 -0.49949828 -0.39167207 -0.23874763 0.03146083 -0.6772556 0.13795741
56 0.28571647 -0.40373144 0.03809191 0.53194004 -0.96197134 -0.4765868 0.16722369 0.36557093 -0.6309705 0.44637823 0.07542905 -0.42377338 -0.051743846 -0.2745428 0.0741709 0.87691486 0.88477236 -0.00032089476 -0.14556314 0.25225094 -0.81961656 -0.4306524 -0.24736951 -0.2610597 -0.12885505 0.106569916 0.5313276 -0.25121057 -0.2733223 -0.34736297 0.14915812 -0.72100204 -0.20743072 0.2575947 -0.41255078 0.35338557 -0.07205878 -0.4196521 0.5011159 0.415745 0.45769623 0.05290359 -0.5655944 0.573211 0.32638663 -1.1739757 0.46404058 0.36301568 -0.46445286 -0.13663563 -0.42151195 -0.5910582 -0.038902942 0.5066957 0.46960628 0.38154602 0.05447677 -0.26149127 -0.3710139 -0.31152025 0.09008025 0.06902558 -0.10606185 -0.36374608
698 -0.6458981 -0.61487335 0.17486483 -0.5642008 -0.56793094 -0.40203318 0.2665774 1.0953804 -0.8021091 0.57960886 0.39125565 -0.71891004 0.6199049 -0.397801 0.47067234 0.44143176 -0.4148476 -0.55070984 0.80135596 0.2206173 0.5047675 -0.19979098 0.20085616 0.881131 -0.8613993 -0.93827045 0.5244994 0.02247191 -0.24022767 -0.2902219 0.65815336 -0.6557984 0.5147859 -0.25539216 0.8492924 0.78485346 -0.5231703 -0.27457097 0.02088935 -0.27923468 0.26016423 0.46875694 -1.0031176 -0.48141715 -0.36440217 0.60023606 -0.53032583 0.20139918 -0.8389575 0.36062798 -0.6600063 -0.21989581 -0.55947536 -0.8235051 -0.21425241 0.011133487 -0.3441913 -0.5763129 -0.08776433 -0.1808041 -0.67184323 -0.21800257 -0.42006066 0.1036901
376 0.030759456 0.15006925 -0.45109576 0.065248944 0.15992954 0.3425017 -0.21142212 -0.02402688 -0.25161764 0.14795649 -0.209904 -0.5590373 0.57782865 -0.2867571 0.048103042 0.13501294 -0.36443788 0.07808787 0.2943435 -0.06793414 -0.33253786 -0.14189819 -0.4006168 -0.42861474 -0.49062106 -0.11486295 0.5656796 -0.50572395 0.2407344 -0.038821522 -0.19977988 0.2884716 0.065289326 -0.37670228 0.12227598 1.0903697 -0.22462928 -0.20075421 0.37073633 -0.27613613 -0.339334 0.6031146 -0.4152118 0.0595917 0.13455157 0.0683056 0.9371608 0.4626772 -0.22024131 -0.017140955 0.7603304 -0.1589458 -0.44491437 0.11990278 -0.06852235 -0.38403705 0.72428775 -0.16832066 -0.11733957 -0.08309775 -0.035609912 -0.56904554 0.16233508 -0.16158772
1888 0.030458665 -0.0863582 -0.28714365 0.1937881 -0.32646573 -0.089474685 0.20221624 -0.0976721 0.14901477 0.42648694 -0.22502439 -0.07695517 0.6220597 -0.21322164 -0.13099876 -0.4345475 -0.2940303 -0.39480639 -0.16661558 -0.61098707 0.1592707 -0.15935615 -0.021743009 0.15246372 0.07792193 0.05517033 -0.50656813 -0.30773205 -0.19202332 0.040445674 0.08418916 -0.15712607 0.1649125 -0.4579796 -0.20854713 0.39362562 -0.33271116 -0.33332348 0.66601837 -0.29390708 -0.6031889 0.3504346 -0.6739972 0.06022847 0.17518178 -0.39413446 0.2728624 -0.0081181545 0.45720267 0.14816387 -0.33207634 -0.68015236 -0.22104277 0.17127691 0.19018848 0.29659748 0.09560081 -0.1113905 0.02963804 -0.53872955 0.09392384 -0.118386954 -0.102626614 0.33321854
3938 0.22650293 -0.11335992 -0.10928931 -0.21632728 -1.100186 0.2882405 0.068084866 -0.18075946 -0.42245036 -0.02309168 -0.08533408 -0.79679185 1.0835102 0.73601025 0.23702928 0.06531632 -0.57254475 0.08946567 0.4424949 0.26828533 -0.65733606 -0.27384537 0.6668565 -0.041503567 -0.34659418 -0.08251437 -0.27301052 -0.33523813 0.4352415 0.20756827 0.5198261 0.3465021 -0.67666095 -0.5211579 0.33344135 0.42813313 1.0238025 0.095260546 -0.13772614 -0.6440653 0.56107426 -0.042543784 -0.7002049 -0.007898238 0.17635833 -0.47269484 -0.16916887 -0.087603785 -0.21600066 0.1652648 -0.07316146 -0.38894433 -0.5597357 0.3348062 -0.13157186 -0.19302343 -0.2701333 -0.036558867 -0.39644837 -0.4113945 -0.15567262 0.059282407 -0.82930225 0.11389779
67 0.49186042 -0.43475074 -0.010678498 0.44934827 -0.9787038 -0.23858602 0.34904507 0.24577124 -0.55747485 0.6201087 0.25684932 -0.092502564 0.012273129 -0.17420022 0.08951433 0.7740671 0.93397784 -0.10853403 -0.24028082 0.36012688 -0.91279083 -0.46423042 -0.31959948 -0.30774817 -0.3693145 0.09169426 0.5977986 -0.37391037 -0.28886977 -0.13193971 0.13215286 -0.62967116 -0.2237992 0.13800459 -0.6100021 0.29106572 -0.006618959 -0.4988044 0.5702738 0.27123082 0.5343168 0.25633702 -0.49932674 0.24819328 0.35342598 -0.9782927 0.47556832 0.31679425 -0.47561553 0.036195904 -0.24669151 -0.58799237 0.18978822 0.27342346 0.33915132 0.3042632 -0.007754789 -0.3124022 -0.40090883 -0.41893476 0.04332625 0.17864981 -0.11833199 -0.25841135
25 0.55014354 -0.43306854 -0.1083681 0.49085414 -0.5991335 0.12812255 0.083801836 0.48644483 -0.43044233 0.51432896 0.40668952 -0.22961749 0.012395543 -0.43148154 -0.13653931 1.1168516 0.70164084 0.0043892916 -0.30648318 0.24036269 -0.7476504 -0.6701976 -0.2547151 -0.30084318 -0.40973952 0.2072829 0.44565654 -0.5290714 -0.50158566 -0.18426758 -0.016615812 -0.72567403 -0.11499341 -0.379421 -0.35009736 0.168246 0.22681752 -0.5465741 0.6448566 0.2850674 0.41431952 0.6458182 -0.5147998 0.57161176 0.5015743 -1.2426096 0.18263817 0.36861652 -0.66949797 -0.16575104 0.12933753 -0.68551034 0.06407714 0.07550852 0.070751704 0.38939697 -0.25705853 -0.029392637 -0.6752733 -0.13090464 -0.07221328 0.37717366 -0.13986826 -0.18948956
828 -1.0095221 -0.47232306 -0.4138664 -0.250187 0.13074845 -0.2582673 0.5929559 0.3232898 -0.13733268 1.030979 0.1754506 -0.36392412 0.6195961 -0.6072894 0.08508381 -0.20556684 -0.20608874 -0.5158633 -0.013467933 0.13246606 -0.2843549 -0.004264331 0.699512 0.41419056 -1.0660855 -0.3775299 0.29677838 0.8640185 0.525063 0.20176089 0.29614732 -0.74254143 -0.30291873 -0.36767817 0.0734672 1.0698435 0.048446286 -0.8233705 0.24360842 0.2920006 0.3938426 0.038048774 -1.2208303 -0.49304965 -0.21762703 -0.29556972 -0.086890586 0.38712925 -0.7982638 0.2321314 -0.458937 0.29416552 -0.03212455 -0.21199185 0.047634196 -0.33322385 -0.03014834 -0.53942186 -0.30714017 -0.36841503 -0.12634039 -0.0060618306 0.97035784 0.11057403
1352 0.11170254 -0.24696109 -0.09331415 -0.00694145 -0.23790959 -0.111450434 0.3009094 -0.0779913 0.08382709 0.39031973 -0.20020896 -0.12459836 0.5263218 -0.20728795 -0.25479856 -0.53533185 -0.23428126 -0.32021907 -0.13977611 -0.45151192 0.124635085 -0.2637761 -0.030359492 0.14111124 0.18314824 0.038726456 -0.53194976 -0.17319503 -0.22674818 -0.07894548 0.08019352 -0.14437452 0.1358754 -0.41397068 -0.058592096 0.4194331 -0.33521894 -0.3564116 0.6274709 -0.27222386 -0.6159047 0.35462347 -0.81048703 0.24009688 0.052305914 -0.4662117 0.3920581 -0.12130398 0.36570305 0.2421651 -0.2501746 -0.67372286 -0.27421892 0.27049807 0.14843509 0.22496407 0.053585194 -0.004613468 0.2713223 -0.36334944 0.21856865 -0.21337175 -0.08504213 0.13430355
271 0.49684903 -0.3161335 -0.044783946 0.5527695 -0.96316624 -0.50144887 0.34828463 0.18064117 -0.7106441 0.28875157 0.13513452 -0.46777102 -0.07401312 -0.16908127 0.07291332 0.7472171 0.7738987 -0.17079666 -0.31936723 0.3912673 -0.7729835 -0.30537036 -0.30569556 -0.3570434 -0.22963707 0.1305276 0.6404891 -0.27684 -0.3392616 -0.23165554 -0.079391636 -0.67684007 -0.1902543 0.1338731 -0.64801073 0.34572774 0.15255359 -0.69778895 0.4587182 0.44468048 0.41266492 0.18196963 -0.5505424 0.8205616 0.39644772 -1.0938597 0.58694005 0.5164342 -0.58004063 -0.006794001 -0.4586837 -0.7500606 0.22069335 0.3291637 0.58613205 0.55425894 -0.071987614 -0.107560836 -0.6323156 -0.3129292 0.13199109 0.15374655 -0.08009205 -0.5431635
3545 -0.1379649 -0.19103594 -0.17433266 -0.3446159 -1.1889791 0.11263819 0.089182876 -0.2350657 -0.54466105 -0.038179472 -0.050814945 -0.89345115 1.0662918 0.5880427 0.25116968 0.3162915 -0.5785451 -0.07695772 0.4237293 0.13364948 -0.6937436 -0.2363442 0.9062621 0.20101035 -0.112126775 -0.12573148 -0.2975909 -0.22131577 0.4235826 0.14104071 0.47987896 0.4373311 -0.65537 -0.5031448 0.27244264 0.37191477 0.9635842 0.3486409 -0.15444973 -0.46626925 0.5170289 -0.04011161 -0.6533985 -0.041188344 0.12408121 -0.5422787 -0.010731051 -0.24576654 -0.100788 0.36077625 -0.07256657 -0.3725956 -0.46927387 0.24715017 0.010854855 -0.16041432 -0.031116415 -0.23992069 -0.4969756 -0.28543738 -0.0791227 0.12134976 -0.76030505 0.19922197
1663 0.16244283 -0.18377313 -0.30737966 0.075039744 -0.34455582 -0.023359671 0.20007208 -0.11380888 0.02367874 0.5130185 -0.09713327 0.0814862 0.5760363 -0.23883137 -0.12678768 -0.557574 -0.3012774 -0.55137527 -0.1178435 -0.5453794 0.108851306 -0.31685087 -0.016559158 0.11855253 0.13083969 0.062864356 -0.4984188 -0.23986088 -0.1699957 -0.060651947 0.19110368 -0.10758587 0.06778385 -0.3932206 -0.16889067 0.29701227 -0.37922826 -0.27561527 0.56336534 -0.21041906 -0.5852399 0.3635909 -0.695509 0.04239794 0.048369758 -0.38711017 0.36952814 -0.0049160365 0.52482843 0.25334683 -0.29442257 -0.60630584 -0.3376375 0.219371 0.21254794 0.20926856 0.15208201 -0.03593023 0.097570635 -0.4136216 0.2671445 -0.26528203 -0.067605264 0.24539654
322 0.60739607 -0.06394261 -0.420567 0.19433236 -0.97254103 -0.40934092 0.23098807 0.26187855 -0.4609802 0.5858051 0.030253068 -0.41990578 -0.36994058 -0.26170418 -0.046031233 1.1047612 0.87127835 -0.2799533 -0.10929328 0.32250136 -0.68823284 -0.5572505 -0.47729942 -0.14660297 -0.16104731 0.18649559 0.7274158 -0.3322962 -0.7011941 -0.26377198 0.08272373 -0.67542464 -0.104203016 -0.12123923 -0.3111599 0.27707782 0.3628819 -0.34632024 0.36139897 0.22440176 0.4729469 -0.2297253 -0.8142263 0.45446068 0.3424697 -0.8939229 0.16228342 0.24702883 -0.20454778 -0.23631652 -0.14129652 -0.8047264 -0.24107005 0.2003302 0.21475919 0.25518304 0.023790449 -0.45421523 -0.16627747 -0.4130915 -0.065005556 0.2737465 0.07513331 -0.21953715
3604 -0.2905814 0.08062908 0.18422586 -0.18795742 -0.93901664 -0.11274675 0.16780579 -0.003396885 -0.6895108 -0.08166122 -0.22681864 -1.0280689 0.9986253 0.86302817 0.24865079 -0.03222779 -0.3671226 -0.43339097 0.37740842 0.009870655 -0.4044576 -0.14546397 0.7978225 -0.022984102 -0.19034761 -0.23191391 -0.033433978 -0.03824623 0.5542771 -0.026796969 0.26685923 0.5630491 -0.8371322 -0.5546215 -0.18877612 0.059787963 0.84196496 0.16907425 0.0034903027 -0.2211021 0.5358946 -0.18433538 -0.61029136 0.21330962 -0.30127665 -0.3605542 -0.097147755 -0.4234583 -0.064346924 0.41132134 0.15202118 -0.5147562 -0.44230843 0.41643867 0.3267159 -0.012848007 -0.014700833 -0.59102064 -0.4384548 -0.110836 -0.2105341 0.021541936 -0.6124874 0.40753555
1800 0.0058669928 -0.18466263 -0.30796176 0.25759262 -0.20939547 -0.15914239 0.29888287 -0.08196192 0.082918465 0.31885296 -0.22580242 -0.10590777 0.6032127 -0.22275124 -0.11345071 -0.49618074 -0.39016414 -0.25029156 -0.15610534 -0.5185437 0.04464043 -0.28716236 0.0068765483 0.22296637 0.16698806 0.06928307 -0.49629128 -0.32013494 -0.3037332 -0.037299603 0.040457968 -0.1624036 0.14727736 -0.53911114 -0.14166233 0.47494316 -0.3666107 -0.37487394 0.61512333 -0.19452761 -0.4920512 0.24187644 -0.7050542 0.1222786 0.14694557 -0.2707693 0.42201144 0.0027691447 0.48490193 0.2965943 -0.27237573 -0.6661636 -0.19992849 0.21991067 0.116274506 0.20668013 0.025506351 -0.17555824 0.21909977 -0.43409684 0.19063237 -0.12444002 -0.07895426 0.09909877
1431 -0.21264715 -0.13646558 -0.25172 0.3187809 -0.432543 -0.026797423 0.17607093 -0.004448815 0.25928637 0.52988976 -0.1554671 -0.17062971 0.5913806 -0.23384722 0.12183381 -0.4301482 -0.31549925 -0.35354546 -0.026374357 -0.44944307 0.24728948 -0.13749605 0.1414015 0.16220848 0.032744132 0.011602092 -0.46767995 -0.250027 -0.42113858 -0.15120979 0.181845 -0.07483013 0.20993748 -0.5197783 -0.13153885 -0.008401327 -0.21847595 -0.436177 0.5175666 -0.38021135 -0.5437463 0.38753837 -0.6659022 0.06253667 0.18784325 -0.38610235 0.3984411 -0.05179306 0.7323462 0.0661436 -0.35604227 -0.7282685 -0.3897629 0.22544955 0.26326767 0.2691674 0.13068908 -0.016350301 0.23394626 -0.43162993 0.29382834 -0.087659925 0.16677839 0.31190568
713 -0.8562124 -0.35055578 -0.19252668 0.23239213 0.022243768 -0.3572725 0.6901656 0.41187885 -0.061269213 1.2390548 0.07705195 -0.47491884 0.2856316 -0.696424 -0.0019262853 -0.23300216 -0.11319827 -0.58822244 -0.20932168 0.34071454 -0.120764874 -0.1887558 0.10075935 0.2657386 -0.85741735 0.014225891 0.51986814 0.7174964 0.67260647 0.052324027 0.40175527 -0.53188133 -0.19210471 -0.6589412 0.03281604 1.175605 0.5352019 -0.34066767 -0.14803833 0.18600902 0.04277618 -0.3054121 -1.4560345 -0.7246218 -0.315044 -0.17473938 -0.24663542 0.2570147 -0.70513827 -0.030623078 -0.35437134 0.16985473 -0.20823407 -0.4790137 0.34702486 -0.37912622 -0.32265705 -0.19898818 -0.29109108 -0.5906386 -0.06733045 0.31430674 0.6150607 -0.37442827
2543 0.022530865 -0.7812347 -0.21656363 0.11637931 -0.22158666 0.013314323 -0.13045424 -0.14060527 -0.16307518 0.2619356 -0.07607642 0.31790608 0.4815298 -0.5409156 -0.16663879 0.26733723 0.4773984 0.13144422 -0.3600415 0.31096795 -0.33633247 -0.586323 0.42427376 -0.11423541 -0.22000366 -0.20088682 0.02847699 -0.2036918 -0.3873222 0.3082301 -0.3533098 -0.19437407 -0.18599114 -0.028643126 -0.34336412 0.28437227 0.07984855 0.44150153 -0.19881338 0.058098156 0.06526611 -0.11151667 -0.7491586 0.14673884 -0.18151145 0.16877551 -0.2414909 -0.23807088 0.33904555 0.19065617 0.007011914 -0.105157316 -0.47640312 0.116597086 0.15159793 0.45873624 0.41473457 0.29893056 0.18396232 -0.052161857 -0.8907344 -0.4152753 0.15461566 -0.09842624
705 -0.9339395 -0.43162888 -0.5733361 -0.22650297 -0.14094982 -0.0648389 0.46823207 0.26276368 -0.12638415 1.1416053 0.21099705 -0.2734998 0.56966007 -0.601705 0.05474596 -0.5586984 -0.24458331 -0.47542405 -0.34462166 0.19146809 -0.23819521 -0.23559327 0.44492355 0.46448484 -1.0305074 -0.45953846 0.38582978 0.84851474 0.79441506 -0.042327736 0.14296927 -0.63608754 -0.33083594 -0.5835982 -0.104370065 1.1463637 0.26234153 -0.8124047 -0.06560745 0.2640483 0.1626637 -0.07091935 -1.2208841 -0.31889737 -0.14148758 -0.60083324 -0.23005536 0.26602784 -0.5786665 -0.036260195 -0.48504665 0.35432032 0.37423685 -0.18790218 0.23621584 -0.24372448 -0.259054 -0.21447659 -0.48033923 -0.25476953 0.04963471 0.34226197 0.8665617 -0.14213327
428 -0.3612406 0.05732432 -0.20772958 0.2815403 -0.13757631 0.4575422 -0.42428455 -0.2831056 -0.4928187 0.22788228 -0.21537003 -0.24065809 0.6156744 -0.5212704 0.17724515 -0.10735249 -0.5659914 -0.26103076 -0.22834127 0.1622616 -0.47407177 0.04460322 -0.26643676 -0.17915231 -0.37846452 0.110394105 0.61805815 -0.5828836 0.058761615 -0.17650059 -0.40222916 0.090171106 0.16440223 -0.2489257 -0.01711453 0.7984128 0.044079613 -0.2529584 0.14663814 -0.4787374 -0.16750903 0.48888546 -0.14131516 -0.08051652 0.028707055 0.004381604 0.77102906 0.2989467 0.049160942 0.09329571 0.709199 -0.00048120058 -0.38066185 0.25441962 0.2815267 -0.21276635 0.36811486 -0.30857217 -0.18552105 0.2499104 0.4096767 -0.72698104 0.35299405 0.015230592
21 0.9199964 -0.5261378 -0.083679326 0.102347985 -0.7354104 -0.08295551 0.19855934 0.3600794 -0.8510303 0.842052 0.052602734 -0.21493214 -0.004534067 0.27336833 -0.13686752 0.72995704 0.8303254 -0.42787912 -0.34143382 0.31359315 -0.8589591 -0.24198107 -0.15144141 0.022840966 -0.39391434 -0.1727528 0.7595703 -0.121099666 -0.7479667 -0.2716713 0.048957985 -0.4569394 -0.39116475 0.058876332 -0.7247904 0.33567542 -0.22348672 -0.20353058 0.51340204 0.31549358 0.53158724 0.19450435 -0.30871043 0.29492652 0.1446273 -0.9096031 0.83966565 0.5903553 -0.34100252 -0.044233497 -0.060821887 -0.62074697 -0.08008449 0.11337394 0.010574382 0.50966305 -0.074383974 0.18075769 -0.697834 -0.74291784 0.27869496 0.21591817 -0.019499091 -0.4611689
26 0.65075845 -0.25154325 -0.06397319 0.57244647 -1.0621872 -0.057556123 0.26315817 0.19658598 -0.4668159 0.5458125 0.49729776 -0.39255828 0.052988943 -0.14726835 0.19569564 0.9417941 0.7757486 -0.35921818 -0.3244095 0.44475293 -0.93789715 -0.56959903 -0.45543936 -0.43117067 -0.21511239 -0.01955182 0.6102557 -0.5925407 -0.2521094 -0.3763717 0.08679755 -0.7354896 -0.32597104 0.1362128 -0.6525529 0.46674225 0.0765498 -0.67642194 0.50005937 0.5031923 0.55996466 0.33651212 -0.40682602 0.29872137 0.2744469 -1.031997 0.3924657 0.6124052 -0.43227673 0.13499877 -0.3721904 -0.69068724 0.23064579 0.21531706 0.59443337 0.5174823 -0.10478951 -0.14080355 -0.43967128 -0.44315585 0.115803145 0.11021242 -0.14249077 -0.34607708
1086 -0.100577906 0.064947166 -0.61749506 0.568731 -0.17014791 -0.053380296 0.13704191 -0.19849889 -0.01940281 0.17527421 -0.21861193 -0.07900158 0.65065867 -0.15496418 -0.03861058 -0.26852834 -0.2990707 -0.23751763 -0.2504904 -0.49472263 0.023187375 -0.09595847 -0.24289335 0.071350925 -0.06484468 0.18119484 -0.35187167 -0.13276428 -0.17017658 -0.009361072 0.26403278 -0.49658814 0.10500907 -0.20454876 -0.17227148 0.14755161 -0.22557983 -0.306516 0.4337359 -0.3371906 -0.4780571 0.3776789 -0.5602275 0.20911154 0.10970747 -0.034130145 0.3666118 0.01974123 0.61032945 0.19020195 -0.1306046 -0.46141067 -0.3161069 0.24340647 0.019602826 0.076940194 0.12987238 -0.10498151 -0.22256073 -0.3766547 0.16518506 -0.2674917 -0.10076819 0.0683263
1730 0.12923726 -0.1437168 -0.2777113 0.0064325863 -0.084290646 0.028509818 0.34968758 -0.20557486 0.117564 0.5255021 -0.13883771 -0.09694946 0.46898824 -0.17070517 -0.18546137 -0.5032327 -0.31388757 -0.50700843 -0.15666206 -0.45382518 0.119169995 -0.33237606 -0.052727915 0.17209844 0.1347075 -0.017348606 -0.5196055 -0.35144538 -0.17529376 -0.01908486 0.11982968 -0.13777134 0.10335501 -0.46522743 -0.07513197 0.35657507 -0.2849355 -0.3761364 0.6574313 -0.21674384 -0.42435622 0.40603438 -0.70874536 0.04565604 0.118671685 -0.2805147 0.3664168 0.009789726 0.51587105 0.20807098 -0.13670851 -0.6532885 -0.41245702 0.18038572 0.29777434 0.3285402 0.06333226 0.09718651 0.20177051 -0.45008776 0.2800637 -0.14975615 -0.07989031 0.001231719
475 -0.1827718 0.30324143 -0.3508117 -0.106373526 0.04609989 0.15249318 -0.2813105 -0.095351465 -0.18402697 0.18455678 -0.40896502 -0.5149628 0.66169345 -0.2840386 0.002883588 0.064659 -0.53381014 0.115436554 0.088877164 0.14249434 -0.02266957 -0.11283522 -0.43978405 -0.40625942 -0.40381035 0.00018789788 0.6091804 -0.51278496 0.2364378 -0.0805944 -0.38540533 0.14929113 0.10840217 -0.3459531 0.07850797 1.0646968 0.023690954 -0.22117594 0.35449755 -0.07825499 -0.4925652 0.5934505 -0.34219426 -0.035989054 0.18088791 0.12725677 0.8859936 0.32970008 -0.102100335 -0.0075607565 0.6576403 -0.4527795 -0.46734077 0.1474807 -0.06823743 -0.36775368 0.70419794 -0.013034207 -0.19504617 -0.17668602 -0.0045087845 -0.67810166 0.18288213 -0.38102219
277 0.6399866 -0.4199805 0.09438326 0.15242584 -1.1208577 -0.33447373 0.034379873 0.0041568596 -0.63495964 0.7693315 0.165434 -0.028385699 -0.22410132 -0.3016808 0.15568897 0.9399969 0.8358087 -0.4611993 -0.11275631 0.47054344 -0.7654803 -0.4477791 -0.009357312 -0.26088777 -0.46091428 0.029185502 0.40532175 -0.036182944 -0.105446264 -0.10012255 0.030338662 -0.46975517 -0.49875015 0.12996735 -0.5971453 0.32822493 -0.050957564 -0.31442362 0.83884674 0.35157347 0.40461293 0.09119158 -0.5239419 0.27563605 0.5298595 -0.73907715 0.59653336 0.37163126 -0.2981182 -0.10096992 0.107045144 -0.5660084 0.009419133 0.36195418 0.08334886 0.27573502 -0.1664382 -0.3078434 -0.11957319 -0.5973813 0.4377667 0.38930708 -0.3153646 -0.25125256
1584 -0.10720561 0.07204862 -0.22799467 0.21580802 -0.30155474 0.087725684 0.15122245 -0.29476163 0.3225256 0.6099377 -0.18962511 -0.03476822 0.6667769 -0.34515473 -0.23237115 -0.11869469 -0.50395226 -0.31075412 -0.09250592 -0.33656013 0.24736568 -0.12622298 0.014467446 0.08144622 0.00857671 -0.034825005 -0.42883876 -0.19870023 -0.113937825 0.23664571 0.061838776 -0.13182727 0.15876059 -0.36572802 -0.12244852 0.1462412 -0.34987947 -0.23394065 0.5349235 -0.34487444 -0.57286954 0.52510846 -0.6140999 0.14212483 0.11048524 -0.38989115 0.5254614 -0.14427021 0.46459788 0.014188715 -0.0148099195 -0.4959524 -0.0154892495 0.5120619 -0.048670515 0.12853599 -0.07801247 -0.16264428 0.12430587 -0.54769844 -0.04668338 0.013417258 0.040666483 0.09418178
119 0.12858272 -0.41726327 0.20705463 0.30079946 -0.76737714 -0.59670484 0.0065790475 -0.011693208 -0.54275215 0.6902545 0.20421027 -0.23989294 -0.13118488 -0.24644284 0.25563973 0.5034245 0.50569516 -0.440539 -0.47619823 0.40265417 -0.5470858 -0.13088177 -0.08143534 -0.48429152 -0.29215887 -0.076784715 0.6991471 -0.1975419 0.05551633 0.4527781 -0.05825153 -0.17752703 -0.288993 -0.013952743 -0.66335976 -0.073436685 0.3621823 -0.45662075 0.84842104 0.77862626 0.38957098 0.18122931 -0.34194273 0.32595384 0.86196774 -1.3662072 0.7227325 0.6166096 -0.23586397 -0.30284214 -0.04241442 -0.7099816 -0.027940858 0.4629685 0.402746 0.14306007 -0.27295133 0.029762987 -0.1624031 -0.2478233 0.08365452 0.298716 -0.216904 -0.32090187
122 0.9046825 -0.39469877 -0.13137637 0.3566492 -0.6650988 -0.06868386 0.41017634 0.21851206 -0.77316713 0.9810084 0.21184465 -0.08788199 0.12545238 -0.008638639 0.02494256 0.7073582 1.0859647 -0.17910379 -0.1493637 0.27066013 -0.974782 -0.17708138 -0.24548592 -0.103019066 -0.53804576 0.014973075 0.80663955 -0.33387327 -0.72396135 -0.104135826 0.08798598 -0.5372232 -0.33276206 -0.010292729 -0.6060747 0.14559363 -0.01476619 -0.42176405 0.3681669 0.1468631 0.48781276 0.30586213 -0.37396038 0.42937234 0.1327467 -0.9028049 0.68293947 0.28195673 -0.5263033 0.046716303 -0.33219856 -0.61035365 0.12954521 0.19568159 0.32026 0.58650553 -0.08018711 -0.24273196 -0.4742884 -0.48206756 0.29659456 0.16196229 0.02807156 -0.32461944
2047 -0.0047923517 -0.47427964 0.36066523 0.10881001 -0.5452446 -0.4166785 -0.0018225249 -0.11713916 -0.1451777 0.57013255 -0.0021399988 -0.08576568 0.5670049 -0.21023716 -0.4109714 -0.0013832836 1.22586 0.13016729 -0.53475946 0.46821314 -0.1442217 -0.13210249 0.14518012 -0.16842382 -0.4617056 -0.61603445 -0.30426666 -0.35749948 0.013650374 0.7224677 -0.19870998 -0.21491654 -0.26964524 -0.0008687264 -0.24716914 0.77251995 -0.26008078 0.027053589 -0.4555212 -0.3403113 -0.1475154 -0.3090419 -0.5932677 0.06230549 0.19658029 0.33127272 -0.27476382 -0.21129072 -0.06299757 0.023966298 0.069296375 -0.3593165 -0.8741602 0.10484539 0.41056353 0.4434819 0.5371556 0.34388226 0.02243007 0.40586248 -0.38859355 0.27745953 0.19969262 0.046307813
3101 -0.21337882 -0.6523875 0.21718611 0.1518183 -0.5137507 0.14464071 0.51407474 0.044840667 -0.26956192 0.28807494 0.22674093 -0.14153121 0.23005699 -0.32796127 -0.37720603 0.5540078 -0.55690485 0.21069086 0.39272073 -0.6011829 0.014792503 0.29571164 -0.3588905 0.16418388 0.26376715 -0.32435673 0.39784244 -0.013454465 0.26566765 -0.23466973 -0.0004556995 0.49438375 -1.0292705 -0.24005698 -0.95585686 0.16755016 -0.2504948 -0.5009114 -0.19099177 -0.40134776 0.14000535 -0.14303006 -0.44098914 -0.12748563 0.13022508 0.084101245 -0.23887005 0.25032735 0.12540759 0.11646269 -0.15163517 -0.7548288 -0.12811352 0.13097827 -0.21592179 -0.18068716 -0.1811055 0.4679023 -0.23744954 0.096525505 -0.1557409 -0.39105785 0.49153978 0.023689836
1768 0.12376605 -0.14286543 -0.25966877 -0.03873614 -0.25155425 0.08172806 0.30436173 -0.22370984 0.15464437 0.6212143 -0.1589557 -0.1424371 0.5937352 -0.11584354 -0.22016495 -0.41668823 -0.43316108 -0.6065295 -0.084629975 -0.55152905 0.20986484 -0.27080575 -0.04871643 0.085575804 0.11499501 -0.09027399 -0.634802 -0.2813639 -0.19364727 -0.07854671 0.1063934 -0.13341683 0.087856084 -0.42858964 -0.050328698 0.2759194 -0.29893225 -0.32419258 0.66510606 -0.025633518 -0.40860522 0.21647345 -0.5780702 -0.009942379 0.09725081 -0.26159117 0.4368265 0.039996225 0.506279 0.08470831 -0.21452889 -0.73526627 -0.47231188 0.113147505 0.3417316 0.33533403 0.1167868 0.10085073 0.20023756 -0.5322744 0.24240986 -0.21434684 0.05662948 0.04863663
252 0.30256975 -0.5179046 -0.15500973 0.72081137 -1.054386 -0.25736234 0.16727205 0.1452589 -0.49022713 0.6857941 0.30811197 -0.22996359 -0.043979656 -0.024535974 -0.0039983187 0.9144279 0.77986604 -0.055405922 -0.22325431 0.38895568 -0.9038441 -0.35175154 -0.31176057 -0.30455923 -0.23749684 -0.095278434 0.7755007 -0.4327089 -0.37151578 -0.28073964 0.24771689 -0.80415547 -0.44713828 0.30958632 -0.5258851 0.3649321 0.041622084 -0.53534657 0.7072499 0.319624 0.36043385 0.28832582 -0.5006109 0.41525215 0.18251178 -1.0467232 0.52192295 0.27079484 -0.29524162 -0.19904818 -0.3784232 -0.5915945 0.306603 0.5383233 0.3059613 0.27799517 -0.022346841 0.050390165 -0.6148738 -0.5124512 0.20142837 0.24836268 -0.3447941 -0.43319926
1589 -0.014639618 -0.16828807 -0.26972628 0.13411029 -0.25332373 -0.08386981 0.22890823 -0.15182112 0.19475338 0.44344985 -0.05267876 -0.07611509 0.58424073 -0.28381056 -0.11934431 -0.4476577 -0.3298191 -0.5697985 -0.28432307 -0.40105322 0.14576393 -0.22276685 -0.0725071 0.14567633 0.20437121 0.11971696 -0.6500665 -0.30575353 -0.19847448 -0.019159973 0.13258731 0.044041168 0.10965676 -0.5025248 -0.22914273 0.38784236 -0.2302923 -0.406065 0.5175617 -0.13525267 -0.5562461 0.4169057 -0.76380587 -0.036153764 0.19792816 -0.35270032 0.30184984 0.0017467624 0.39026815 0.13244803 -0.17416048 -0.73793644 -0.23331976 0.4884948 0.20924543 0.25210997 0.13062179 0.018442718 0.26399946 -0.55399644 0.19464514 -0.08670573 -0.074285254 0.21306133
2347 0.009188717 -0.80224395 -0.1954372 0.011843518 -0.2661482 0.05664328 -0.052393645 -0.1889311 0.00088362145 0.25975493 -0.037486743 0.22364116 0.50092494 -0.48228583 -0.1830797 0.1764829 0.523571 0.095139705 -0.46225464 0.37698713 -0.35206035 -0.65378475 0.42264464 -0.12293883 -0.25622 -0.21772003 0.16668016 -0.2026501 -0.3007124 0.27879193 -0.3682221 -0.048637222 -0.07404793 0.00850701 -0.37209362 0.4334307 0.1300307 0.34268224 -0.2168958 0.11023125 -0.001023952 -0.096780024 -0.69737273 0.15633549 -0.10852308 0.17792223 -0.34798515 -0.24135545 0.24604236 0.17979072 -0.12360708 -0.095997006 -0.5066263 0.12838618 0.20777716 0.51785636 0.32709858 0.33693442 0.19686714 -0.09735699 -0.84458756 -0.4427835 0.06806967 -0.09837354
1199 -0.033685766 -0.08220369 -0.24686205 0.16909863 -0.32801926 -0.0005417112 0.19212054 -0.020383134 0.1449007 0.50407094 -0.09975064 -0.09015208 0.67591786 -0.26841432 -0.16370666 -0.45490998 -0.26280853 -0.43366554 -0.2350506 -0.5711751 0.13585871 -0.13744809 -0.031124834 0.2744234 0.0016488814 0.091696575 -0.51016057 -0.25877252 -0.26568958 0.09751544 0.00667516 -0.108449385 0.17493497 -0.43212694 -0.20978332 0.36409584 -0.42751053 -0.37491953 0.6596199 -0.29504246 -0.5549689 0.3409061 -0.6620421 0.007969936 0.26656416 -0.34399128 0.29103342 -0.00416251 0.5562596 0.062201515 -0.34348807 -0.66527534 -0.34383756 0.168628 0.08559221 0.18294974 0.1934838 -0.015069398 0.125304 -0.5189705 0.24549967 -0.030491216 -0.20937341 0.3432366
3291 -0.297444 -0.8499245 0.4279852 0.30675232 -0.07230817 0.4484309 0.51697326 0.2016751 -0.35242686 0.18932196 0.22339341 0.023041178 0.29207233 -0.49664167 -0.43663847 0.4742289 -0.58248603 -0.0034058685 0.422448 -0.22752896 0.07644254 0.36056966 -0.34729823 0.044366125 0.28824523 -0.34111914 0.3868565 -0.048316024 0.18940704 -0.27501154 -0.114243865 0.49173382 -1.0885379 -0.16343868 -0.81098056 0.23698427 0.13563804 -0.44534323 -0.11824494 -0.59349567 -0.045584995 -0.24890183 -0.584331 0.14277217 0.35833538 -0.008893797 -0.42484507 0.07946235 0.21996413 -0.12556762 0.12072977 -0.8418264 -0.01250915 0.1612653 -0.20503868 -0.08102475 -0.3246845 0.3312083 -0.3879739 -0.004730013 -0.046927612 -0.3989941 0.4237018 0.0801164
2742 -0.5136152 -0.6426402 0.31506738 0.21881656 -0.45426267 0.25330684 0.5933354 0.13949344 0.11239316 0.33671504 0.28340617 -0.081892915 0.060361516 -0.59791803 -0.420856 0.66278094 -0.7470675 0.3149551 0.31366488 -0.6025758 -0.0025235054 0.20772864 -0.38179645 -0.14606436 0.34455848 -0.35663825 0.40088996 0.047484655 0.19915548 -0.11968199 -0.08489108 0.5242196 -1.1006265 -0.31543097 -0.8864203 0.12896983 -0.06887865 -0.5621387 -0.05728544 -0.55167216 0.4336453 -0.19002257 -0.76986724 -0.014417244 0.18865074 -0.057820003 -0.30179164 -0.088840395 0.19899885 -0.072311014 0.11312571 -0.95228267 -0.10798525 0.080368556 -0.37416822 -0.17841306 -0.20729496 0.4590643 0.0051138075 -0.003861088 -0.1355352 -0.52091867 0.31948927 -0.20129782
1390 -0.09939108 -0.16931163 -0.33225548 0.2327536 -0.28452942 -0.25124002 0.24560928 -0.16078071 0.086611465 0.304547 -0.20924391 -0.23729503 0.72038335 -0.18794148 -0.14022255 -0.2706486 -0.2105089 -0.30632406 -0.1020636 -0.5578967 0.079529524 -0.30164024 -0.058087416 0.139485 0.07823352 0.15365274 -0.530774 -0.20639041 -0.3279142 0.03526969 0.1475321 -0.14600554 0.23576343 -0.5331815 -0.22023295 0.41275185 -0.5079152 -0.4286338 0.56617945 -0.32278714 -0.66525364 0.3957233 -0.7300985 0.12317165 0.031639136 -0.21742558 0.36934084 -0.0031878932 0.61860996 0.28674328 -0.18422112 -0.6923923 -0.15679921 0.30718905 -0.0027844189 0.19729196 0.18396154 -0.20795941 0.12965609 -0.4353044 0.11574973 -0.10090705 -0.06855162 0.3574657
1746 -0.06518994 -0.12548143 -0.4327246 0.10629318 -0.25373858 -0.3030917 0.22363326 -0.18612112 0.1162917 0.23754771 -0.10199911 -0.15822129 0.6220956 -0.27210283 -0.110825114 -0.35067576 -0.17570548 -0.3631953 -0.18259466 -0.5400987 0.03888795 -0.26167306 -0.067886926 0.19896968 0.23765579 0.12552717 -0.512346 -0.31028426 -0.1383474 0.0013344565 0.084077016 -0.17041466 0.13146009 -0.5325011 -0.25621465 0.44034663 -0.38928357 -0.3999489 0.58105767 -0.3512519 -0.64737266 0.43477002 -0.7701398 0.13048154 0.08741453 -0.24628472 0.27989554 -0.06514137 0.5047636 0.31405628 -0.21773973 -0.6369336 -0.15254037 0.2730687 0.07277216 0.1591251 0.10236335 -0.24243373 0.14637761 -0.57448304 0.16505395 -0.08304735 -0.07636436 0.2638501
1827 0.11008746 -0.21125741 -0.27042902 0.11512001 -0.2927295 -0.24876933 0.33429924 -0.1454165 0.018703423 0.32717457 -0.2035772 -0.16450201 0.48352852 -0.18123272 -0.30816633 -0.45578226 -0.32644537 -0.33590588 -0.18082 -0.55226636 0.06472468 -0.33859092 -0.04190434 0.18503676 0.15777689 0.07911589 -0.5724574 -0.23265132 -0.30252826 -0.031283624 0.14274028 0.0060565546 0.29489654 -0.5981622 -0.15389219 0.51570934 -0.41116652 -0.36258408 0.5306862 -0.30044585 -0.5343635 0.45216197 -0.79643345 0.071847394 -0.02253915 -0.26780057 0.36094755 0.0044585746 0.49296167 0.13192114 -0.07608167 -0.6551706 -0.19449145 0.40483207 0.02820242 0.26900268 0.14532508 -0.044007584 0.22235686 -0.5518283 0.16532388 -0.059618436 -0.03062748 0.010761944
805 -1.0524235 -0.5112248 -0.2578569 -0.04567038 0.08974453 -0.10004873 0.5746276 0.312047 -0.05045869 0.89629126 0.2654818 -0.60225993 0.5187075 -0.5140346 0.05225412 -0.09239559 -0.07690657 -0.46648747 -0.23406377 0.18451914 0.033504207 0.02856353 0.5169333 0.24942821 -1.1289538 -0.34735245 0.34674457 1.0263536 0.5907161 0.087713204 0.32431373 -0.67928576 -0.20601293 -0.48096833 0.023396138 0.9399452 0.2543063 -0.9840944 -0.038336452 0.037484966 0.31182057 -0.11571877 -1.2362722 -0.3506607 -0.27987772 -0.26037115 0.03827811 0.33254185 -0.777779 0.010425601 -0.65826887 0.22130087 -0.2100477 -0.21527232 0.052637316 -0.17353474 0.07169249 -0.14962927 -0.4372191 -0.6499215 -0.14768562 0.13372512 0.7536571 -0.19044179
2839 -0.009381388 0.03719399 0.24917273 0.14011174 0.023029424 -0.20524926 0.30822662 -0.008558004 0.026166633 0.35710096 1.328822 -0.21934679 -0.18330929 -0.090850234 -0.09352553 0.29349408 -0.31209582 0.074159205 0.25048766 -0.10485339 0.3273798 0.2786414 0.23628815 -0.088159434 -0.77274555 -0.016429706 -0.14328021 -0.120030805 -0.18154967 -0.28380072 -0.1722692 0.37021872 -0.22764829 0.1007075 -0.59934515 0.9273893 0.25551522 0.5415682 0.4835426 -0.051128596 0.43170983 0.19263572 -0.7292 -0.11000454 0.16056027 -0.07071038 -0.35464147 0.16130708 0.42772308 -0.0832128 -0.20826419 -1.016058 -0.27988327 0.46391308 0.004487044 -0.31102502 -0.46287948 0.040036198 -0.6285342 0.32752633 0.119650766 -0.40502778 0.3750584 0.08628933
3082 -0.20948893 -0.884361 0.41242385 0.12262254 -0.3148001 0.29686397 0.6903673 0.20601457 -0.16977173 0.24975011 0.36038297 -0.086219855 0.29481164 -0.5085533 -0.44047073 0.6123823 -0.553521 0.12052628 0.30307958 -0.5546467 -0.03960366 0.2930205 -0.37076935 0.03689942 0.34651724 -0.34237164 0.2971092 0.077695996 0.4006065 -0.23013827 -0.041776165 0.5309831 -0.9616064 -0.25015083 -0.81950295 0.095604874 0.053533632 -0.43662718 0.004760302 -0.54958683 0.23942542 -0.14207442 -0.45757654 0.06465745 0.27826563 0.0012228074 -0.21851072 0.11610515 0.19375898 -0.046188317 0.076122954 -0.882338 -0.07111397 -0.031244408 0.053764444 -0.10162076 -0.09444434 0.47858307 -0.19255777 0.050692357 -0.17215416 -0.47451788 0.48716924 -0.054979388
917 0.02479919 0.8363752 -0.5692344 0.2531048 -0.71037966 -0.21513154 0.53587085 0.31048328 -0.21830083 0.5441245 0.2999531 -0.132876 0.60258627 -0.40536377 -0.1769619 -0.08147746 -0.59932166 0.21086791 -0.15932044 -0.081854515 -0.2706736 -0.04616789 0.25869942 -0.070045926 0.30864367 -0.67178136 0.19874495 -0.18866685 0.31211802 -0.060241304 0.10493245 -0.35025224 -0.012270145 0.25017452 -0.24428605 0.19471692 -0.45221755 0.31565332 -0.03868518 -0.10103773 -0.8197697 0.5340833 -0.59046733 0.64242494 -0.14472844 -0.19474712 0.19125158 0.38246587 0.36112162 -0.11927396 0.72432 0.12697572 -0.48720878 0.2679299 -0.009668404 -0.2666717 -0.4787643 -0.07818419 -0.09665133 -0.68523836 0.14151153 -0.1415999 0.26227987 -0.3206613
1559 0.07926128 0.01876756 -0.12010062 0.13206276 -0.184357 0.036386978 0.30243844 -0.19430046 0.14574383 0.63991314 -0.029865805 -0.021090258 0.67386705 -0.30438662 -0.2650131 -0.43053895 -0.34556386 -0.650834 -0.10290957 -0.48295873 0.27392027 -0.20959508 -0.056828827 0.033857156 0.16429247 0.031268805 -0.5289902 -0.2705675 -0.239456 -0.10204507 -0.020321265 -0.011770205 0.003323828 -0.41055334 -0.053480137 0.27963954 -0.27214694 -0.38812688 0.6269409 -0.14495264 -0.6463963 0.36886743 -0.72530687 -0.027183106 0.16641779 -0.40912142 0.28302443 -0.046560656 0.36649656 0.17263284 -0.24631588 -0.7739548 -0.39316055 0.2734169 0.26296148 0.22760554 0.09607292 -0.018892381 0.27221435 -0.5220958 0.20437194 -0.14631297 -0.14414868 0.25387627
3684 0.7669363 -0.22789268 0.10700709 0.2615381 -0.8193336 0.43294132 0.041471373 -0.24238698 0.049338378 -0.1588537 -0.09380308 -1.0683911 1.283176 0.25339308 0.09199412 -0.07075484 -0.5349959 0.24202847 0.5607674 0.37607613 -0.84688216 -0.15722403 0.45721018 0.22009978 0.10695794 0.1261103 -0.30330184 -0.36024007 0.43854436 0.026959991 0.587612 0.2772 -0.70711905 -0.45368254 0.5503058 0.6609432 0.81124324 0.027663613 0.015094795 -0.48555112 0.6377616 0.25376853 -1.0397602 -0.20998834 0.11513083 -0.050932236 -0.16544163 0.3223153 -0.43877405 0.19056237 -0.051028527 -0.17476483 -0.38429138 0.24297094 -0.09217502 -0.3372982 -0.32702646 -0.073700435 -0.21910846 -0.19904901 -0.07405791 0.086384214 -0.73131377 0.21009868
719 -1.1961353 -0.29837543 -0.3074607 -0.059597056 -0.056958262 0.07397971 0.51400965 0.4161963 -0.3732877 1.0504291 0.13245954 -0.46759686 0.51736665 -0.569105 -0.07095296 -0.3026493 -0.022984251 -0.6682008 -0.19816636 0.05573543 -0.17622901 -0.19056186 0.31845862 0.6189178 -1.0755129 -0.49367425 0.36673203 0.72892624 0.76350266 -0.16530696 0.42856595 -0.62299716 0.02392767 -0.7258715 -0.084124684 1.2914126 0.4378287 -0.58720857 -0.1258961 0.1976033 0.32059088 0.1136658 -1.2569917 -0.50580776 -0.48012558 -0.30340365 -0.34313592 0.28866592 -0.64398664 0.18168263 -0.36921975 0.19791716 -0.030832184 -0.09387325 0.06862626 -0.22514392 -0.14704481 -0.16874027 -0.16512495 -0.27345356 -0.13532253 0.3833751 0.69471157 -0.21726772
239 0.4078666 -0.4107492 0.1736932 0.62559456 -0.97493315 -0.47864556 0.3195318 0.4587733 -0.694906 0.4955678 0.44888392 -0.2820308 0.1531981 -0.14668159 -0.072425075 0.9448331 0.6017364 -0.13090132 -0.30802292 0.5055773 -0.90898246 -0.5210864 -0.3401988 -0.30325392 -0.39407164 -0.14166044 0.6720423 -0.39211628 -0.30007535 -0.3331416 0.06099855 -0.6941116 -0.40624896 0.22989932 -0.5840572 0.2864424 -0.025635362 -0.5543502 0.53795004 0.3025859 0.50090545 0.35708034 -0.30220696 0.4564261 0.22100258 -0.94185835 0.50551194 0.2942007 -0.5655246 0.069046475 -0.4929985 -0.7664412 0.26081386 0.5177173 0.47369397 0.44245717 -0.080203004 -0.23804067 -0.31481063 -0.29358017 0.25972643 0.3394821 -0.24293551 -0.31744936
1377 0.08158009 -0.0651566 -0.15926938 0.0623124 -0.14128833 0.056025494 0.3669652 -0.28202137 0.06512267 0.54165506 -0.16778767 -0.0035268676 0.46383628 -0.23437525 -0.27221206 -0.3479381 -0.40566492 -0.5253006 -0.07040615 -0.46669427 0.2206406 -0.2993986 -0.084793575 0.035453483 0.0439179 -0.04146276 -0.5463079 -0.3674009 -0.10211389 0.08970122 -0.017081866 -0.115056284 0.042430803 -0.43170673 0.17841664 0.24349792 -0.29632252 -0.19132765 0.55437297 -0.28807232 -0.4425884 0.40192384 -0.8538657 0.12126543 0.13437323 -0.3747518 0.37483248 -0.16905497 0.4739957 0.14786261 -0.11632451 -0.70089674 -0.29619312 -0.0056678406 0.2909932 0.38495415 -0.027179504 -0.05824869 0.30389947 -0.5076341 0.3211571 -0.21346428 -0.044744644 0.037816882
200 0.60876215 -0.35638034 -0.11051869 0.5069527 -0.94742876 -0.14659095 0.29502454 0.2827214 -0.62859917 0.48804772 0.34518614 -0.37031835 0.0033354266 -0.12631308 0.17437431 1.0754607 0.8979393 -0.2689557 -0.09342704 0.259064 -0.8915318 -0.38871837 -0.4376861 -0.26899478 -0.16855292 0.11758226 0.6470572 -0.48281905 -0.37733006 0.067094974 0.043233156 -0.79792273 -0.1679666 0.04152204 -0.5467431 0.317819 0.27765885 -0.46334124 0.68040407 0.37155095 0.5342729 0.18820551 -0.6552616 0.23439488 0.37193203 -1.0081978 0.58790004 0.31202394 -0.5521819 0.01128629 -0.18456016 -0.7378301 0.16988114 0.3150488 0.5562626 0.41796705 -0.10278424 0.14132473 -0.5219067 -0.57507455 -0.23821647 0.33065543 -0.010561004 -0.38231647
1612 -0.1090915 -0.2577941 -0.24088642 0.059222847 -0.3200335 -0.19780733 0.18522704 -0.21891199 0.09843312 0.26999944 -0.16434343 -0.15516406 0.5872437 -0.19004788 -0.09608735 -0.47151577 -0.21578813 -0.6150768 -0.2850477 -0.45592526 0.104827434 -0.10113633 0.076854534 0.010040337 0.22821452 -0.065819226 -0.5333363 -0.17045526 -0.2697965 0.08135303 0.07935317 0.067976795 0.17575656 -0.42519465 -0.12428648 0.23062028 -0.17792785 -0.33665726 0.80433095 -0.3514027 -0.5391385 0.47050887 -0.70099276 0.027452089 0.15505761 -0.27657133 0.34700158 -0.160521 0.3847752 0.17302847 -0.2148206 -0.75165415 -0.24130791 0.4454066 -0.00027665417 0.25536674 0.020537943 -0.10489111 0.24910711 -0.6000517 0.13855627 -0.15779328 0.17809632 0.3072691
3320 -0.08323175 -0.4811243 0.16086137 -0.121100195 -0.37127814 0.3170673 0.51499516 0.08066437 -0.111500785 0.2065004 0.18908772 -0.29180503 0.056715675 -0.7829054 -0.25152072 0.70747113 -0.5876169 0.21691324 0.24668583 -0.2841013 -0.12173263 0.5147246 -0.37185928 -0.11981141 0.20627384 -0.438965 0.17955714 0.13394259 0.2930039 -0.16427684 -0.07371783 0.3446092 -0.98376036 -0.39573547 -0.8529111 0.30871308 0.12608945 -0.69907993 -0.12108595 -0.46141723 0.31768197 -0.29179808 -0.7380227 -0.2098404 0.36972603 0.09940595 -0.24889645 -0.07557539 0.37699246 -0.06276191 0.040627304 -1.0307859 0.17811757 -0.16974561 -0.22030225 -0.20039926 -0.17174454 0.5456463 0.036136385 0.039071966 -0.030076265 -0.322044 0.4283061 0.09348535
3633 0.43263453 -0.021062842 0.05470145 -0.12546526 -0.8789016 0.41803765 -0.190021 -0.1211263 -0.31336176 0.03853633 0.0038159585 -0.8081247 1.2631068 0.6511255 0.14594188 -0.19979197 -0.5046832 0.14287844 0.5104747 0.4030931 -0.80043477 -0.3392829 0.46278155 0.31359616 -0.20153235 0.026305305 0.028064186 -0.36892185 0.32187796 0.11095599 0.461116 0.31391966 -0.5630772 -0.43865022 0.33368713 0.20022096 1.0047321 -0.13316293 0.10139426 -0.7106155 0.6728951 0.06419347 -0.9169826 -0.07139699 0.05493011 -0.24122459 -0.111995034 0.023776324 -0.30463606 0.47356132 -0.19381262 -0.38522807 -0.58686435 0.4963945 -0.10715262 -0.25824985 -0.5150893 -0.049526162 -0.33639354 -0.12971254 -0.1808747 0.027383383 -0.8292167 0.12185297
1126 0.0025587603 -0.04216879 -0.17436063 0.09508881 -0.33953342 0.02822127 0.16195098 0.011472929 0.1749807 0.52996796 -0.14391892 -0.1797826 0.5543315 -0.32135373 -0.1610185 -0.38861132 -0.21721089 -0.34604737 -0.23286018 -0.45977023 0.17251413 -0.23621438 0.013347976 0.11921479 0.19532256 0.086836085 -0.55980897 -0.20713478 -0.30348974 -0.20539874 0.2048637 -0.07375395 0.22149126 -0.37190947 -0.19030808 0.36543772 -0.31164476 -0.381989 0.63583684 -0.20821354 -0.6128667 0.31454393 -0.75266904 -0.006411401 0.16742593 -0.29623246 0.30033174 -0.09432774 0.42680106 0.1010167 -0.274018 -0.7030518 -0.38164037 0.29899037 0.16487056 0.22769664 0.109040245 -0.060744926 0.17370793 -0.6056251 0.1335002 -0.05769516 0.020101879 0.34636354
203 0.14292876 -0.57979167 -0.112847164 0.81461596 -1.0826217 -0.40580234 0.16770521 0.2447365 -0.52072513 0.52812576 0.12917547 -0.20178416 0.010256761 -0.11120748 -0.03727553 1.0054497 0.76770544 -0.21066986 -0.16126871 0.373004 -0.7206156 -0.37985596 -0.40690783 -0.32789117 -0.37556535 -0.23689534 0.70738226 -0.37427592 -0.3721751 -0.17052774 0.19570696 -0.7886204 -0.44502804 0.50619483 -0.3339813 0.17041947 -0.12575696 -0.5775576 0.79287136 0.31435877 0.31593257 0.39655167 -0.56298894 0.37905216 0.32084793 -1.0547959 0.38316557 0.39061862 -0.31171724 -0.28729746 -0.4176585 -0.52242225 0.20850374 0.62755 0.18456067 0.12662384 -0.119297214 -0.14328612 -0.38827556 -0.23795973 0.061300695 0.10541784 -0.4609887 -0.41003278
3363 0.020537311 -0.03647986 0.23931673 0.097996235 -0.05904776 -0.13992369 0.4199521 -0.38794717 -0.061675966 0.28465918 1.3332092 -0.17516227 -0.13228072 -0.097510226 -0.035741627 0.38620517 -0.3298941 0.041756634 0.25134978 -0.10998644 0.31547529 0.25855234 0.29442012 -0.1762468 -0.7505611 -0.043538276 -0.19117014 -0.07284776 -0.17921369 -0.3210432 -0.12758705 0.49321046 -0.20792238 0.14181945 -0.5346856 0.94836664 0.23802261 0.56124276 0.31337973 -0.12814914 0.44826502 0.16474481 -0.7359791 -0.18614705 0.30096355 0.092044905 -0.20301507 0.18310127 0.38154075 -0.12498088 -0.29610357 -0.97240365 -0.2042495 0.5693466 0.103764236 -0.32634374 -0.52803725 -0.039386816 -0.6337643 0.24902813 0.043385793 -0.4367896 0.47422633 0.14049128
3434 -0.22800364 -0.75161594 0.24569875 0.20860717 -0.3590079 0.11637032 0.5190294 0.07098517 -0.18802778 0.3212495 0.21260287 -0.0466076 0.18831496 -0.3930977 -0.30632845 0.63028663 -0.6436567 0.09012449 0.3853391 -0.36303574 0.07164474 0.39581195 -0.38017824 -0.07582773 0.2110475 -0.3806999 0.37438974 -0.054251775 0.23155397 -0.19728455 -0.16600074 0.46958047 -1.0272273 -0.3166378 -1.04057 0.10645329 0.041053303 -0.46657383 -0.08249286 -0.678934 0.2960451 -0.42169088 -0.56010914 -0.016162729 0.08564732 -0.031916376 -0.21899539 0.0379996 0.16581763 0.023974601 0.13268128 -0.93358624 0.05784675 -0.06333366 -0.23650631 -0.13445298 -0.10288856 0.54554445 -0.121513635 0.028950866 -0.10562531 -0.52413315 0.36160448 0.03279721
2384 -0.20860128 -0.38204578 -0.12718198 0.26684138 -0.45335042 -0.2630158 -0.1714947 -0.07161408 -0.105180964 0.68667036 -0.25407347 0.066680275 0.5786695 -0.4845544 0.22302403 -0.023836307 0.5172227 0.289232 -0.3926698 0.57349914 -0.34115013 -0.63403416 -0.15838335 0.029775316 -0.26249757 -0.4372968 -0.4117405 -0.27396262 -0.3001942 0.3668332 -0.36792347 -0.06048574 -0.33436686 -0.072833106 -0.3870246 0.42583668 -0.10931595 0.56802225 -0.4522056 -0.15907072 0.29787293 -0.2244744 -0.6011218 -0.030615708 -0.090096444 0.08467237 -0.029228015 0.18785419 -0.032549247 -0.0130269425 -0.22516473 -0.56807053 -0.5365301 0.13186932 0.28571564 0.6386835 0.3390946 0.08271814 0.2386274 0.28820047 -0.71600693 -0.20330939 0.33862302 0.15063396
366 -0.2858161 0.5632011 -0.24469121 -0.014986394 -0.09251358 0.6674853 -0.28549257 -0.49408647 -0.20962696 0.1207903 -0.41752407 -0.175081 0.8346895 -0.36526138 -0.05063362 0.032119542 -0.4814923 0.040688206 -0.16884282 0.037299067 0.10522382 -0.17333001 -0.32670575 -0.2849511 -0.35067618 0.12756893 0.74307364 -0.18822123 0.08387736 -0.12028805 -0.22736783 -0.1395492 -0.037912164 -0.15646899 -0.049927946 1.0552312 0.21901466 -0.13655296 0.29979828 -0.35393852 -0.4597041 0.44149292 -0.4119207 0.10175904 0.41566306 0.17900889 0.99211293 0.19956678 0.063996814 0.08522838 0.52433306 -0.47295493 -0.4499161 0.19008054 0.25770712 -0.052298047 0.3551051 -0.5016212 -0.20346493 -0.102875 -0.028172942 -0.50420856 0.15709653 -0.3485652
9 0.6773257 -0.1808642 0.120308064 0.34779757 -0.9853841 -0.21486084 0.22432138 0.17206691 -0.48195583 0.6558487 0.24205767 -0.23451777 0.10798697 -0.15597944 0.14643596 0.9597179 0.6904698 -0.21526031 -0.20974241 0.15811627 -0.9103223 -0.33570817 -0.28435683 -0.31519327 -0.45915684 0.21646239 0.61568296 -0.576831 -0.34617135 -0.28159508 -0.031649046 -0.84825677 -0.12347639 -0.17313516 -0.64339805 0.16673476 0.01867723 -0.5592065 0.47419244 0.41653413 0.6795528 0.1830389 -0.36244234 0.40714422 0.43428662 -1.1275051 0.3862989 0.4795959 -0.7327063 0.059839778 0.02430845 -0.87384415 0.14676805 0.19381633 0.3958263 0.44899315 -0.16366976 -0.05388137 -0.33012015 -0.4385028 -0.037471976 0.0039615193 0.2435705 -0.49094248
2951 -0.1912107 -0.45095256 0.5891599 0.10249807 -0.059287634 0.20949283 0.51509243 -0.10469775 -0.36678848 0.5691927 0.3286648 -0.19680606 -0.22378322 -0.19760706 -0.42646542 0.3832342 -0.65539783 -0.11442061 0.54322886 0.05608311 -0.20777996 0.2118929 -0.039297212 0.3163378 0.10811822 0.040577084 0.21158116 -0.032617804 0.19649561 -0.47302902 0.012517553 0.28627497 -0.9275558 -0.48901668 -0.8946484 0.016016545 0.23714276 -0.002058124 -0.05732757 -0.39346853 -0.3852664 0.3206456 -0.18464243 0.46107832 0.48836815 0.09200026 -0.29942122 0.6181698 -0.15174218 0.30960703 -0.6000177 -1.0189072 -0.40539008 0.11725292 -0.19195938 -0.14053416 0.14342815 0.38472727 0.43282077 0.130227 0.038884178 -0.06962778 0.9581963 0.36230278
1833 -0.11622934 -0.08813165 -0.31540886 0.2588344 -0.35556754 -0.14072493 0.16320974 -0.1419137 0.08025341 0.3573858 -0.14263652 -0.0700921 0.61430484 -0.32904747 -0.058009468 -0.38532993 -0.21314211 -0.5479285 -0.17127866 -0.6442276 0.1302573 -0.16513938 0.0016125081 0.13990824 0.23629531 0.16963154 -0.4320303 -0.17402816 -0.28121704 0.040865064 0.15359454 -0.064582296 0.20841761 -0.45984122 -0.30706686 0.3607436 -0.31830695 -0.34924704 0.60328805 -0.33284512 -0.6120732 0.38957658 -0.72262925 0.04116444 0.15623309 -0.3070778 0.22398952 -0.11537258 0.5286413 0.111789994 -0.23507951 -0.6633053 -0.23822899 0.36776233 0.015301029 0.18194114 0.108496144 -0.24191636 0.09111342 -0.5983295 0.12174211 -0.13329211 0.0060085338 0.30279467
412 0.1033732 0.048032373 -0.29212978 0.19097176 0.1609455 0.30447134 -0.34815684 -0.31121412 -0.4412237 0.2437991 -0.37765998 -0.63579404 0.35222334 -0.3505135 0.15138789 0.0023439596 -0.47974697 0.004422907 0.16520151 -0.051789492 -0.5528049 -0.12446748 -0.3045104 -0.2914374 -0.63723165 -0.14305891 0.75546384 -0.58845097 0.21161681 -0.060715977 -0.25135764 0.22877425 0.18150784 -0.356293 0.03351017 1.2668934 0.010555394 -0.08746929 0.40237853 -0.5509508 -0.58932316 -0.022563733 -0.4720551 0.17530052 0.20288685 -0.1712319 0.55974823 0.35511595 -0.3217896 -0.32828435 0.85750043 -0.20859022 -0.47459626 -0.035949208 0.16109839 -0.34190923 0.6559925 -0.33205566 0.048218817 0.013534898 0.18396886 -0.7374447 0.33273327 -0.2530219
1621 -0.060848705 -0.110730514 -0.23921637 0.21923785 -0.24444747 -0.009035157 0.28919294 -0.16745654 0.16461425 0.56672066 -0.24965993 -0.06907684 0.5988047 -0.32483572 -0.124136694 -0.3968788 -0.374785 -0.47660744 -0.15232794 -0.53736633 0.25523755 -0.25796556 -0.088067375 -0.04717297 0.12421586 0.1126559 -0.5173537 -0.2578369 -0.20604788 -0.0923378 0.06870948 -0.12993999 0.1629502 -0.46579963 -0.013478348 0.30544215 -0.2316983 -0.29186535 0.5968805 -0.19914354 -0.52341914 0.31788126 -0.7437426 0.10472651 0.1942643 -0.43910813 0.25667685 -0.17556481 0.4216005 0.072109744 -0.22044112 -0.6946571 -0.3387134 0.35256153 0.09832672 0.3015397 0.038294215 -0.1683954 0.24552403 -0.49459198 0.11768886 -0.18237634 0.03278547 0.12438698
517 -0.022234323 0.49974105 -0.09361596 -0.008112127 -0.060598727 0.52523416 -0.20601234 -0.2543778 -0.46764648 0.08297403 -0.46290877 -0.3562828 0.53437334 -0.35928586 -0.13739641 -0.02329561 -0.5543256 -0.11008834 -0.21961573 -0.09954644 -0.23279968 -0.21362795 -0.3696369 -0.17745546 -0.53956956 0.062457867 0.7725035 -0.28361425 0.112595856 -0.02904991 -0.20081459 0.11476738 -0.031302802 -0.1718474 0.0082971845 1.1841009 0.0028157956 -0.20060198 0.24844742 -0.71449006 -0.56233263 0.3377326 -0.4049055 0.14194834 0.16004978 0.018472565 1.1127641 0.5383854 0.097551644 0.24611932 0.59684855 -0.28856105 -0.42256632 0.02287897 0.1310213 -0.11057881 0.27013236 -0.041863106 -0.03851275 0.14045647 0.091203384 -0.5991111 -0.009117651 -0.19060299
3838 -0.07554615 -0.45993498 -0.30545348 -0.24464032 -0.9451537 0.1802956 0.018864 -0.030021995 -0.75460637 -0.07776195 -0.10352785 -0.86263204 0.7530476 0.6338888 -0.046708472 0.5432213 -0.5607837 0.0499286 0.34543532 -0.04302379 -0.44922867 -0.23463546 0.9894946 0.23401201 -0.30611154 -0.07711866 -0.52390903 -0.49845114 0.5618128 0.17213161 0.556145 0.4556319 -0.89049375 -0.77070874 0.12255876 0.6165366 1.0656694 0.5129372 -0.39597014 -0.26611993 0.49967626 0.041158907 -0.5302285 0.23833571 0.10442839 -0.7119057 -0.09818559 -0.2562606 0.0420971 0.19374591 0.013582171 -0.18187578 -0.45674446 0.46037456 0.17257337 -0.1362306 0.21872193 -0.24672921 -0.58513796 -0.45465133 -0.10545053 0.28158513 -0.8677202 0.0116543155
3521 -0.24026322 -0.0362224 0.27401733 0.981991 -0.6809018 -0.15457141 0.7323049 -0.7498612 0.29503965 0.07121887 0.007851545 -0.8190313 1.140406 -0.60367006 -0.675712 -0.27068114 -0.08057283 0.16978914 1.0703429 0.35637483 -0.87719846 -0.4661178 0.81580585 0.49872792 0.05967364 0.036506273 -0.054911096 -0.3761105 0.1564177 -0.20341681 0.35446006 0.41222292 -0.4305993 0.016203897 0.58461374 0.3514566 1.0544021 0.3213139 0.54675484 0.09413944 0.28245667 0.31905624 -0.64787376 -0.34586206 0.1416846 0.09328292 -0.30526498 0.22428589 -0.50197005 -0.15422894 -0.0041366704 -0.58287627 -0.3059812 -0.72102284 -0.3389723 0.018859873 0.124676794 0.2275774 -0.42626846 -0.133325 -0.040826444 -0.1346271 -1.078378 -0.20218821
3116 -0.45829466 -0.81271684 0.25382027 0.15592502 -0.40324265 0.14752951 0.4734008 -0.16436663 -0.17280427 0.46793094 0.4182177 -0.12290539 0.36956313 -0.55846125 -0.44578406 0.8722657 -0.6263228 0.18505701 0.37270212 -0.42097405 0.24904814 0.3298081 -0.40249655 -0.07299479 0.21423297 -0.3541228 0.29368305 0.009986085 0.035899736 -0.19001664 0.06668152 0.4429661 -1.1400442 -0.06042594 -0.79612184 -0.01594149 -0.1068098 -0.6912089 -0.12277483 -0.5830561 0.21594855 -0.18120907 -0.58633673 0.019777909 0.01569429 -0.11874643 -0.3200952 0.053228777 0.5409735 -0.18218543 0.15020807 -0.639905 -0.25563696 0.065233506 -0.17271343 -0.24171114 -0.13042116 0.5674089 -0.25349244 0.31210324 -0.11614748 -0.52236134 0.31251493 -0.20008016
637 -0.016097952 0.34599283 -0.7124669 0.3449837 -0.18795983 0.65621567 -0.016086837 -0.40198496 -0.46843717 -0.054779846 -0.29406673 0.2961478 0.67118603 -0.64653367 0.023700375 0.025584718 -0.5280455 0.04370613 -0.19284536 -0.058614198 -0.14338334 0.33491963 0.004149446 -0.10777118 -0.45240805 -0.15769689 0.016469518 -0.040020145 0.017685235 -0.22138466 -0.40092468 -0.30719832 -0.16759701 -0.34005815 0.11573529 0.683631 -0.11641282 -0.22120778 0.24089448 0.016791863 -0.09070132 0.28641278 -0.35303658 0.34924036 0.41012242 0.27107915 0.70045733 0.30500734 0.20905754 0.22616051 0.46640193 -0.13277759 -0.39178237 0.20710161 0.038316756 -0.07149987 0.17909378 -0.60637856 0.032969154 -0.065968096 0.35209852 -0.36123165 -0.089766964 -0.49618992
304 0.40906152 -0.27374303 -0.0054719597 0.42784667 -1.2060627 -0.22735591 0.023908326 0.14112072 -0.52266294 0.5074227 0.07051505 -0.30086267 0.078156084 -0.29603502 0.10019387 1.0671623 1.1937993 -0.20312305 -0.2725375 0.34093598 -0.74708784 -0.43443125 -0.26402736 -0.35031986 -0.33845538 0.06594029 0.35475543 -0.25411165 -0.3557197 -0.38600907 0.15355238 -0.6136746 -0.6025752 0.041531924 -0.6197627 0.51013225 0.04001591 -0.39224848 0.6123555 0.53094506 0.38765496 0.16965206 -0.28355655 0.16667284 0.28580543 -1.1502155 0.287891 0.37647662 -0.31153843 0.1701467 -0.022576349 -0.72947425 0.12101959 0.19304994 0.18912499 0.43976456 0.053446967 -0.19903642 -0.42674047 -0.44743216 0.15593961 0.19160224 0.011143769 -0.020879032
896 0.17259935 0.45253357 -0.7025284 0.5930458 -0.66590023 0.13781726 0.22856669 -0.23207967 -0.37843433 0.40916985 0.35494018 0.10880549 0.53700227 -0.6123632 -0.03117281 -0.17998615 -0.68144894 0.2488057 -0.63218 -0.10759571 0.17762515 0.22850953 0.17860486 -0.2594371 -0.285951 -0.56672454 0.09796233 0.30597118 0.014339883 0.051748358 0.2268986 -0.38172308 -0.053178962 -0.51696515 0.23633723 -0.23295246 -0.04952372 -0.07606735 0.14688009 -0.03284557 -0.38234556 0.14875704 -0.54740036 0.982498 -0.089547485 0.3700545 -0.05654531 0.6707181 -0.10645974 0.119923696 0.79504365 -0.7766072 -0.36648503 0.5108042 0.33565623 0.054174803 0.016927691 -0.08613503 -0.051444076 -0.6644095 0.24590594 -0.51313454 -0.1752677 -0.05414915
373 -0.23799713 0.1572257 -0.52210045 -0.010518472 0.15911846 0.3660371 -0.46403688 0.008654972 -0.38764054 0.027277306 -0.10960082 -0.5175845 0.44635057 -0.45155358 0.19502869 0.049754452 -0.4081099 0.007197858 0.121055126 -0.27537292 -0.40103662 -0.25986597 -0.28674138 -0.28562328 -0.49150276 -0.3590437 0.7649746 -0.5422684 0.25866452 -0.16271496 -0.21923962 0.37165138 0.0655925 -0.45506158 0.058048777 0.91791236 -0.14781815 -0.014732316 0.29264772 -0.52812946 -0.29432938 0.4837147 -0.47293395 0.17058921 -0.037974328 -0.15512301 0.7994903 0.36130142 -0.22810474 -0.122396834 0.70316267 -0.059707236 -0.50078 0.18709333 0.11707807 -0.50978804 0.6112897 -0.3525385 -0.025851792 0.011705579 -0.0014554011 -0.7577222 0.17211713 0.005502779
3280 -0.33763364 -0.9199575 -0.0014155116 -0.09847596 -0.35627508 0.081384934 0.40511823 -0.1480215 -0.2798604 0.32925582 0.27880213 -0.15413387 0.17804047 -0.61702365 -0.38128293 0.752378 -0.54077184 0.17555149 0.4449196 -0.3976755 0.067737475 0.40600005 -0.43487453 -0.16651009 0.3236124 -0.48077464 0.315968 0.10090581 0.18752766 -0.18262649 0.24534169 0.38904965 -0.9904974 -0.05153355 -0.6074371 0.10677689 -0.05018854 -0.53828233 -0.0671363 -0.38434103 0.26632595 -0.2717462 -0.76655155 -0.040774666 0.18933415 0.0038102742 -0.09806805 0.16911067 0.6523771 -0.1826791 0.08395977 -0.8054121 -0.0742547 -0.2001993 -0.087622166 -0.36159694 -0.1643636 0.5593303 -0.3688094 0.25148594 -0.21372719 -0.51050776 0.33612216 -0.1041323
3397 -0.4926727 -0.579014 0.36615995 0.16138822 -0.35285342 0.20667462 0.6880613 0.18988067 -0.19266161 0.3772568 0.2944611 0.08943236 0.104359224 -0.42285922 -0.45389935 0.6705384 -0.59590816 0.023915231 0.38451472 -0.4038259 0.012190431 0.1780726 -0.22227503 0.06398287 0.31495976 -0.23642036 0.28843188 -0.15697262 0.14073367 -0.39185208 -0.22154622 0.5755845 -1.0463945 -0.3663307 -0.7852999 0.28186914 -0.08485824 -0.4057654 -0.13957562 -0.44122183 0.2293542 -0.27542788 -0.40370494 -0.09569965 0.26146066 -0.046553098 -0.39013478 0.24964269 0.015596918 0.09502532 0.06882142 -0.82965434 -0.17362946 -0.0049478314 -0.1319507 -0.1525225 -0.033434793 0.4637785 -0.012197562 -0.0019258077 -0.29613855 -0.42892104 0.4248581 0.020564374
1804 -0.079265185 -0.08580449 -0.19343871 0.17084017 -0.32596526 -0.060481235 0.2976116 -0.13246813 0.13123964 0.4312165 -0.16088907 -0.13241321 0.62742794 -0.2010276 -0.0642146 -0.4653437 -0.21203084 -0.5314729 -0.18801692 -0.5754891 0.04007083 -0.22214377 -0.04770852 0.05486479 0.10707649 0.14886633 -0.6031883 -0.14718275 -0.12427511 -0.05144286 -0.008819344 -0.19124684 0.11873904 -0.3463583 -0.15848708 0.37852386 -0.41962266 -0.33751208 0.708563 -0.32611445 -0.58081645 0.38257542 -0.66750306 0.07661959 0.090817235 -0.30601442 0.19551349 -0.06805282 0.4928299 0.14499828 -0.36779407 -0.7253753 -0.35546556 0.17612775 0.24317753 0.12026682 0.21394455 -0.13849458 0.10475926 -0.61686736 0.18572366 -0.16719092 -0.11418823 0.31572732
1783 0.32945287 0.7367027 -0.82590514 0.39342013 -0.66810507 -0.059237126 0.549583 0.54731685 -0.0790806 0.50226843 0.019054675 -0.08471423 0.38165995 -0.5152736 -0.19477463 -0.11398816 -0.4645986 0.23617707 -0.071001045 -0.11389641 -0.095258 0.099162385 0.27436474 0.16288161 0.0686015 -0.68174213 0.03037422 0.19105636 0.21478872 0.06503665 0.092995666 -0.45304936 0.23403837 -0.22027585 -0.25926843 0.21815528 -0.18681233 0.23506312 -0.08761005 0.076121874 -0.48994562 0.5002217 -0.4711166 1.0469221 -0.32168454 -0.026779158 0.24069628 0.28981718 0.35935888 -0.04571313 0.90681773 -0.3815981 -0.52280205 0.19875692 0.32602438 -0.27749816 -0.34771514 -0.14091666 -0.20908666 -0.63560283 0.22904019 -0.35075355 0.34365696 -0.053813472
315 0.54096854 -0.04757832 -0.1856714 0.14647818 -0.9708487 -0.23875584 -0.0267623 0.028893283 -0.40372747 0.72634786 -0.07821199 -0.17563054 -0.3554652 -0.3037683 0.11820414 1.0261319 0.67956096 -0.31234694 -0.16694945 0.4784606 -0.80782646 -0.6848347 -0.14772747 -0.20131485 -0.16631702 0.106614955 0.5927283 -0.14829926 -0.4242598 -0.33345684 0.057119876 -0.54135615 -0.42160785 -0.22948422 -0.509492 0.12191478 0.25837922 -0.394496 0.5172281 0.41466308 0.77051705 0.20163448 -0.65173215 0.42477477 0.63665044 -1.0453242 0.3473081 0.5906805 -0.09867826 -0.026529435 -0.1618385 -0.70214087 -0.19299075 0.29386756 0.1460061 0.2502884 0.19686583 -0.62433726 -0.13292629 -0.2975429 0.2633496 0.25456956 0.08224096 -0.021095013
2863 -0.510353 -0.85268676 0.22988576 0.3696352 -0.23378232 -0.032097023 0.4814912 0.03801447 -0.15561606 0.08533543 0.23818515 -0.11148284 0.5002557 -0.2799928 -0.35083574 0.6685871 -0.28179324 0.15447076 0.3614093 -0.72447956 0.17822903 0.0126739135 -0.21540624 0.13874972 0.2565037 -0.29038846 0.29540947 -0.041730016 0.13204269 -0.46006447 0.025169302 0.53925174 -0.9365419 -0.12240189 -0.9020099 0.09997664 -0.10028726 -0.5755241 -0.081531644 -0.44707453 0.24827978 -0.05599627 -0.28034043 0.24661234 -0.029657984 -0.03226443 -0.2648119 0.3150978 0.22475053 -0.08073006 -0.055418845 -0.6817472 -0.30157652 0.011918614 0.039513234 -0.4516329 -0.37140563 0.18343054 -0.44179195 0.36212057 0.017378762 -0.48003182 0.55989337 0.27391067
136 -0.043651797 -0.2632905 -0.4365863 -0.04075608 -0.2561144 -0.33960134 0.14747621 -0.17542051 -0.21448442 0.9606892 -0.3465679 0.17272568 -0.07809975 -0.41297713 0.3372097 0.5146315 0.52267015 0.024993664 -0.6521632 0.56510186 -0.2635035 -0.41557822 0.042865254 -0.27678576 -0.18288222 -0.09122612 -0.101294495 -0.57104665 -0.2551647 0.0924822 -0.23362954 -0.26459435 -0.86025953 0.07298878 -0.25463182 0.21548495 0.047650088 0.29748803 0.031853013 0.036450226 0.32406685 -0.31566614 -0.45467797 -0.059443116 -0.11315961 -0.11529488 0.10154615 0.1386857 -0.2095431 -0.28297973 -0.08225065 -0.7614843 0.00459534 2.7406445e-06 0.15460604 0.5677778 0.2883367 -0.15099809 0.2056317 0.22271687 0.101707056 0.35032463 0.01506625 0.23879604
1707 0.02373855 -0.19506033 -0.33318973 0.209532 -0.30092612 0.057039794 0.21806179 -0.09502112 0.091358125 0.55816364 -0.05287697 -0.18041316 0.72851694 -0.23526938 -0.17920044 -0.43007043 -0.13027763 -0.4857395 -0.35176265 -0.6114838 0.090339735 -0.14702885 -0.025034403 0.33078313 0.038542073 0.17877221 -0.60987854 -0.25449547 -0.3037351 -0.08209453 0.1534407 -0.118012294 0.15944068 -0.45971856 -0.33358705 0.33640024 -0.37323758 -0.41654426 0.5304196 -0.34142062 -0.8286747 0.24005201 -0.6956414 0.0039817025 0.1464108 -0.25366712 0.24786863 -0.053598534 0.5016889 0.08771327 -0.33488542 -0.69947505 -0.26606444 0.17324324 0.06797015 0.17979915 0.22221123 -0.05667 -0.008089611 -0.52796394 0.16558638 -0.03423735 -0.18315509 0.37344122
1078 0.042108614 -0.028072102 -0.27352825 0.22344494 -0.28246948 -0.011064001 0.16579245 -0.054728188 -0.0027645752 0.47721583 -0.22054794 -0.12612252 0.6569245 -0.27828693 -0.11528078 -0.4623318 -0.22001806 -0.46808 -0.28773957 -0.626464 0.075997464 -0.11387177 0.011742819 0.2546113 -0.11460312 0.30087477 -0.5222762 -0.21656908 -0.24484932 -0.021114537 0.060949262 -0.12426788 0.10806284 -0.50870305 -0.26711324 0.407683 -0.47885048 -0.28794214 0.49407712 -0.3486681 -0.7031009 0.35756156 -0.6911741 0.07026934 0.23094295 -0.34053394 0.28041136 -0.066777594 0.5327207 0.08604761 -0.3513049 -0.60736686 -0.29029742 0.16948923 -0.007653013 0.17369172 0.19776875 -0.021654442 0.010604906 -0.47732377 0.30782962 -0.05039442 -0.22922982 0.3665502
1714 -0.036935005 0.02224397 -0.31603694 0.17310959 -0.31243885 -0.11730368 0.1735215 -0.17170055 0.15938337 0.42535287 -0.039020266 -0.10209228 0.7198283 -0.2544938 -0.083006926 -0.41136765 -0.081999265 -0.554884 -0.3149732 -0.5667637 0.17433643 -0.10221358 -0.033619102 0.15232815 0.08444204 0.05739309 -0.48319057 -0.25082532 -0.21544148 0.054793984 -0.025156796 0.06462802 0.12217835 -0.51758707 -0.15183577 0.3150881 -0.266982 -0.37735 0.5329641 -0.34938928 -0.70446825 0.49208525 -0.81053215 0.101282254 0.1164322 -0.4361109 0.22269672 -0.056430697 0.4926074 0.07832128 -0.33814004 -0.6517188 -0.17744373 0.21946925 0.08152987 0.19790763 0.07545769 -0.22008437 0.17238458 -0.47321388 0.10601816 -0.13238011 -0.17192522 0.43742162
3756 0.23289591 -0.26261085 0.17058504 -0.017489143 -0.9333491 0.62177074 -0.1366627 0.14759107 -0.4418245 -0.0035728356 0.16736798 -1.0539668 1.0553675 0.4543725 0.19552553 -0.44628206 -0.25149533 0.12752017 0.50173247 0.553041 -0.5548197 0.09091824 0.5735954 0.32177463 -0.048710052 0.24837972 -0.31047478 -0.41552788 0.33441916 0.12727983 0.4268217 0.4765183 -0.4122627 -0.40516534 0.027760241 0.2832769 1.0163562 -0.23818971 0.06511283 -0.521087 0.4280729 0.05225561 -0.8178975 0.3836767 -0.19020845 -0.384336 -0.32554552 0.32611215 -0.36938003 0.068551615 -0.25894693 -0.33912063 -0.7559412 0.12520762 -0.03703036 -0.21715459 -0.4028252 -0.3747638 -0.28087842 -0.11976032 -0.4111009 0.16293997 -0.8066023 0.09039695
3948 0.52159977 -0.15298246 0.29562098 0.10795887 -0.64793813 0.32273436 -0.03538194 0.074681886 -0.27557525 0.031399857 -0.05262651 -0.5776529 1.2983727 0.47858804 0.3112542 -0.24555518 -0.46231404 -0.04227868 0.2937495 0.4194549 -0.7613962 -0.31772867 0.5747229 0.15524606 -0.26620027 0.17032975 -0.18067853 -0.29252833 0.28997052 0.32198837 0.41046682 0.4576811 -0.5650232 -0.22721645 0.21667899 0.23581699 0.91432333 -0.28527644 0.12682004 -0.7089297 0.4801575 -0.058325376 -0.83213216 0.03373196 0.009195412 -0.116420396 -0.16263738 0.11975953 -0.6100676 0.1323504 -0.18240738 -0.18784645 -0.9772613 0.16298436 -0.054557897 -0.32223803 -0.74588877 -0.15446815 -0.15291005 -0.27489528 -0.17233716 0.06468583 -0.8189649 0.058279376
1613 0.020865595 -0.1878197 -0.22438344 0.13716789 -0.35760278 -0.11769879 0.3029771 -0.2054582 0.11659405 0.44743362 -0.10045099 -0.05750525 0.6125494 -0.16958219 -0.13871409 -0.47138238 -0.3105198 -0.61058784 -0.32254052 -0.50025207 0.16234745 -0.30217862 0.04185989 0.0322639 0.16415146 0.022924693 -0.57311475 -0.22414893 -0.13334756 -0.027963923 0.14774257 0.11173009 0.14126483 -0.4953575 -0.13041542 0.37491223 -0.30110893 -0.4148879 0.5251625 -0.22953957 -0.65290916 0.43092227 -0.6663659 -0.03877334 -0.009617457 -0.39409402 0.26942328 -0.14517936 0.46609545 0.09979629 -0.25070325 -0.74287707 -0.30371675 0.21700695 0.17676555 0.25207585 0.09178957 -0.10023644 0.09741375 -0.55828464 0.25258604 -0.17304891 -0.030476442 0.2660593
1376 0.026055118 -0.25252727 -0.17357609 -0.109604776 -0.29076913 -0.033321913 0.27823052 -0.23155983 0.2220787 0.34524283 -0.08923271 -0.12186653 0.55910563 -0.35462397 -0.08978136 -0.47991955 -0.2365156 -0.5639527 -0.17777124 -0.43741158 0.16526271 -0.32796678 0.017506724 0.12502778 0.30985788 -0.117683366 -0.4674863 -0.16763093 -0.20570058 0.09574347 0.12487534 0.08334008 0.16610299 -0.5316082 0.088858105 0.19856188 -0.26468724 -0.32637155 0.689921 -0.2862635 -0.55456597 0.49441874 -0.82233584 0.055156894 0.25126228 -0.4126901 0.34433442 -0.07987188 0.42919406 0.117991544 -0.20458046 -0.7495797 -0.2963715 0.45844772 0.2274814 0.34766915 -0.021711452 -0.14080557 0.34352872 -0.4601519 0.23522879 -0.21973734 0.14497279 0.09269546
563 -0.44524193 -0.37292153 -0.31645814 0.5114127 -0.33565813 0.67237043 -0.4850857 -0.31160533 -0.50260067 0.58344215 0.04164359 -0.17784862 0.2630839 -0.24690658 0.38724178 -0.3497556 -0.16227983 -0.050218288 0.5833205 0.09700047 -0.42093343 -0.039240032 0.21720198 -0.14975029 -0.31201968 -0.1602229 0.5162248 -0.73987997 0.13930264 0.1209608 -0.39781967 0.11389398 0.21000762 0.042282224 -0.039195877 0.5561384 -0.49466318 -0.26489672 0.38259616 -0.14963214 -0.17316851 0.6630893 -0.16808976 0.08809141 -0.37891835 -0.51461273 0.53878146 -0.08852357 -0.23095474 -0.0463184 0.8437998 -0.113630444 -0.25353357 -0.14758046 0.10865626 -0.54781663 0.28448737 -0.57727903 -0.070173256 0.35662514 0.52913517 -0.8082478 0.5242978 0.22799073
823 -0.96172893 -0.15814695 -0.3271957 -0.27545422 0.059390996 -0.24723071 0.6126506 0.5259243 0.036610804 0.9522206 0.18291464 -0.52272254 0.59247255 -0.6962948 0.19761719 0.17378892 -0.12790374 -0.6049748 0.0030728816 0.10264972 -0.013884666 0.08394696 0.88610613 0.43641835 -1.1696311 -0.19514687 0.23530042 0.9375368 0.4405253 0.07890674 0.22103299 -0.6141927 -0.38992468 -0.3469124 0.20748222 1.0498779 -0.08146791 -0.9408213 0.05577938 -0.12197045 0.21333858 -0.11230492 -1.1200464 -0.0258094 -0.13002051 -0.16285472 -0.1755148 0.5495268 -0.8742528 0.036308207 -0.8579131 0.24100508 -0.037044097 -0.17459331 0.27284715 -0.08692034 0.13320048 -0.669695 -0.49896732 -0.51687336 -0.3115324 0.13298798 0.8883309 -0.09577269
2793 -0.43844792 -0.64144117 0.30512884 0.301583 -0.35415268 0.21827565 0.5943226 0.19430937 -0.20597856 0.38402614 0.33417615 -0.059273522 0.22186895 -0.38556424 -0.43674433 0.59995973 -0.5283062 0.15393354 0.26274872 -0.6138247 0.019004622 0.40125874 -0.3983191 0.08302435 0.30115986 -0.16875581 0.35477188 -0.013768989 0.32746387 -0.13126819 -0.03783254 0.6610779 -1.0101215 -0.25014257 -0.919838 0.22658277 -0.08224682 -0.42619312 -0.21673816 -0.5206841 0.11660968 -0.32218394 -0.4774317 0.09819928 0.3819009 0.009604073 -0.28895476 0.26028556 0.08169739 -0.024499128 -0.018059913 -0.8371393 -0.27072692 0.07890219 -0.17894326 -0.15155646 -0.11908105 0.40036577 -0.15964445 0.029746205 -0.10116694 -0.4382534 0.44506437 -0.088372774
830 -0.970763 -0.5036046 -0.21119557 -0.439889 0.09464096 -0.5112245 0.7225984 0.25081253 -0.015824283 1.0279971 0.3344772 -0.41739476 0.7323734 -0.58254135 -0.14123906 -0.18062627 -0.072690144 -0.55009824 0.05346647 0.17019692 -0.37398288 0.17641453 0.50301313 0.3524003 -0.99545115 -0.41054553 0.17009887 0.98559004 0.7084269 0.2941932 0.32891452 -0.62916344 -0.13323314 -0.25154075 0.27855042 1.2376386 0.3384798 -0.89875215 0.030908672 0.19062881 0.062864065 0.1650693 -1.440033 -0.5185208 -0.38466904 -0.26106346 -0.14695331 0.30820048 -1.0038452 0.0019797185 -0.6255724 0.23816293 -0.035875883 -0.10244786 0.17692761 -0.2907436 0.09383607 -0.21860747 -0.5151708 -0.5257253 -0.25647894 -0.10707826 0.73452264 -0.17604446
824 -0.9919815 -0.33835152 -0.3078786 -0.3442222 0.12885909 -0.17828642 0.6301395 0.16101298 -0.020257013 1.2161187 0.23586093 -0.5496874 0.5119546 -0.5562759 0.048317693 -0.10963995 -0.13928065 -0.5572617 -0.21623944 0.08709899 -0.34082302 0.04541443 0.677656 0.33129784 -1.0304976 -0.27782544 0.2798082 0.9757229 0.6911429 0.3323534 0.03447698 -0.6413372 -0.2673628 -0.5327295 0.28577635 1.0586025 0.2263772 -0.8083654 0.059338786 0.35548514 0.35209137 -0.1233131 -1.0854864 -0.37899467 -0.25585642 -0.33910477 0.03425824 0.22430189 -0.79210997 0.049017534 -0.67452157 0.17516644 -0.10102033 0.03643758 -0.0071156486 -0.25637603 0.133254 -0.25997666 -0.5835273 -0.56125134 -0.03154015 0.04683031 1.1888622 -0.15143791
2661 -0.5376312 -0.6429934 0.34080467 0.07271247 -0.58580863 0.16906102 0.55406356 0.022180967 -0.093631364 0.4063154 0.3687695 -0.13213417 0.24707131 -0.5192514 -0.28797033 0.6662828 -0.51209694 0.04935051 0.273761 -0.534829 0.046962805 0.36607474 -0.38814637 0.0035475593 0.4501622 -0.32444134 0.4563295 0.004887712 0.23349021 -0.18999128 0.054621354 0.5076409 -1.1263958 -0.18386824 -0.88700604 -0.029694814 -0.077908844 -0.57663625 -0.06856681 -0.49677485 0.24156876 -0.28417963 -0.554553 -0.092067376 0.15732652 0.08402047 -0.26465252 0.20152071 0.37212595 0.047830842 0.06556091 -0.767569 -0.22296704 0.19724981 -0.21729988 -0.28330866 -0.025255647 0.3405295 -0.17643425 0.13970059 -0.12549044 -0.6240912 0.40939534 -0.16317947
1399 -0.12164653 -0.06427165 -0.26325175 0.18505235 -0.3314399 -0.032138947 0.19173627 0.020656705 0.012847643 0.42794302 -0.110269964 -0.14733107 0.7251102 -0.334438 -0.22898637 -0.48779994 -0.2980395 -0.4007799 -0.31167978 -0.63891524 0.09999065 -0.09643259 -0.0881578 0.26334628 0.06129749 0.09041787 -0.4840775 -0.19339374 -0.3556739 0.03857742 -0.015649054 -0.11643378 0.19461717 -0.42690277 -0.23393817 0.4781956 -0.35808742 -0.3634993 0.6479732 -0.42545235 -0.6467918 0.3007476 -0.6573938 0.09385992 0.359829 -0.21382892 0.28985035 -0.0060986537 0.5106976 0.06809348 -0.33590186 -0.55862576 -0.27519637 0.2931493 -0.00595753 0.15567459 0.14944565 -0.012437084 0.16127667 -0.5401635 0.19635317 0.06772727 -0.15366544 0.362849
1367 -0.038055748 -0.23571177 -0.38065305 0.074349284 -0.3429078 -0.24765927 0.2913553 -0.19059175 0.0072323014 0.29187974 -0.20054196 -0.32470453 0.6006612 -0.19136761 -0.20319892 -0.40625033 -0.24004014 -0.37536892 -0.16770835 -0.43529952 0.09943977 -0.2361876 -0.065623 0.25886202 0.14753951 0.07678694 -0.5710237 -0.23615001 -0.18591236 -0.028481938 0.11946761 -0.084344074 0.3226725 -0.63070387 -0.17495753 0.36320335 -0.41077682 -0.38028723 0.59584457 -0.40019614 -0.6201807 0.34501612 -0.7890484 0.21843544 -0.016462278 -0.24754946 0.40142173 -0.073254146 0.46999627 0.22734363 -0.2036438 -0.77185404 -0.17196478 0.4321601 0.033156756 0.2326177 0.104061894 -0.17243424 0.31143996 -0.46697187 0.1540856 -0.17503545 0.019685848 0.11952512
484 0.12213941 0.34559765 -0.15039492 -0.12511154 -0.013144027 0.49143755 0.0072141457 -0.6295221 -0.3922365 0.04544923 -0.44747493 0.060045313 0.62636256 -0.21419843 -0.25757667 -0.05771861 -0.50745755 -0.09703636 -0.11260593 -0.22699839 -0.0641903 -0.30282778 -0.24836071 -0.10738699 -0.47270867 0.14757775 0.45078644 -0.19288607 0.16643237 0.15087362 -0.3469436 -0.08941694 0.041231535 -0.05214429 -0.0035396675 1.0219485 -0.11445198 -0.072732784 0.1854376 -0.57312787 -0.7077174 0.24418281 -0.56565523 0.25356162 0.17939542 0.07751516 1.1189352 0.21820994 0.033893734 0.3595141 0.26699635 -0.36952147 -0.30059603 -0.23389497 0.16194133 0.060292546 0.16071393 -0.19141445 -0.38428077 -0.16079453 0.4914585 -0.3473623 0.069620624 -0.34863696
3851 0.5064509 -0.07755806 -0.116131954 -0.072698325 -0.80605125 0.59629595 -0.0238624 -0.030655624 -0.27408484 0.19237345 0.14589064 -0.8787172 1.2627357 0.5631785 -0.040466364 -0.13412866 -0.40126234 0.1552054 0.50219214 0.31377512 -0.85021096 -0.4091519 0.37718636 0.310294 -0.0014789092 0.036188696 -0.17965393 -0.26855004 0.5157413 0.20061105 0.38180393 0.4804388 -0.6368405 -0.53123474 0.46855238 0.39233243 0.9034214 0.090312056 0.12731785 -0.5803382 0.63216686 0.08665561 -0.92699647 -0.11805854 -0.12207916 -0.40106273 -0.13985376 0.12004858 -0.522633 0.23795092 -0.12532225 -0.16097254 -0.7166625 0.44525716 -0.3157275 -0.18353264 -0.42659152 -0.029824054 -0.40870985 -0.13023347 -0.14249948 -0.009223691 -0.6765481 0.25246477
2754 0.030437987 -0.118493676 0.15269785 -0.07062862 0.06327074 -0.28998077 0.30544254 -0.16812617 0.039309457 0.20056903 1.2708906 -0.11837054 0.03859591 -0.28292045 0.0750887 0.39316836 -0.1852288 0.24893102 0.07663311 -0.23905878 0.18650407 0.3181429 0.32722545 0.08898537 -0.747223 -0.05673887 -0.2652903 -0.12631936 -0.22504863 -0.63199073 -0.12912837 0.32326093 -0.24526773 0.024739036 -0.6753991 0.897334 0.26780993 0.39299133 0.51556027 -0.09964718 0.4541823 0.2581065 -0.5597639 -0.030972632 0.2063002 -0.007818096 -0.40023756 0.16816299 0.45310175 -0.054675687 -0.2017334 -1.0039117 -0.24104045 0.3793436 0.13766658 -0.3501282 -0.6092465 -0.012690518 -0.6076379 0.32859474 -0.07610322 -0.3534027 0.40089494 -0.030927273
1211 -0.13881874 -0.19814937 -0.18971914 0.27548024 -0.43020692 -0.031564347 0.21218002 0.011298213 0.07894679 0.44688547 -0.14739178 -0.19276975 0.6896138 -0.18182765 -0.09835438 -0.4305955 -0.3219625 -0.48802128 -0.38035396 -0.57757396 0.16734754 -0.020028379 -0.058867123 0.20469464 0.05400633 0.09157418 -0.5216533 -0.21665859 -0.30963412 -0.017930277 0.025405355 0.01974621 0.22154506 -0.36014578 -0.14963704 0.4531555 -0.48281407 -0.40332648 0.63783836 -0.2554574 -0.6236484 0.17716733 -0.7083517 0.0075838827 0.26795676 -0.30319867 0.2878135 -0.041812014 0.48504734 0.04243154 -0.3168159 -0.64707655 -0.30856797 0.293691 0.11028731 0.23764786 0.0784603 -0.038979128 0.19033815 -0.5908326 0.17387858 -0.0464606 -0.065357804 0.3681446
747 -0.7529958 -0.108987644 -0.5348661 -0.12678431 -0.09418316 -0.41423482 0.5772394 0.5328532 -0.23070371 0.783105 0.2887334 -0.08779271 0.8500931 -0.55705726 0.24184798 -0.022072777 -0.15846542 -0.86265415 0.05053442 0.19378284 -0.19411728 0.015441111 0.9151073 0.65924364 -0.9890544 -0.35025102 0.37471703 0.6235733 0.51226914 -0.10303578 0.039219026 -0.65294546 -0.3657365 -0.3389278 0.050090674 0.95846957 0.061454035 -0.9365568 0.05967661 -0.17383052 0.02809173 -0.2888748 -1.3111159 -0.07176198 -0.13453327 -0.020985702 -0.4233602 0.34283566 -1.1057434 0.40874982 -0.79287887 0.33526483 0.25318763 -0.22089608 0.41281712 -0.26108485 -0.14839025 -0.59197736 -0.39755967 -0.28121254 -0.3821566 -0.057566572 0.88438046 -0.058165833
1835 0.15545227 -0.15580934 -0.22410867 -0.15733491 -0.24078894 -0.023851156 0.39082488 -0.26563606 0.29151946 0.41327807 -0.15497155 0.022345081 0.43730533 -0.30535382 -0.12571463 -0.5096364 -0.29130977 -0.5758053 -0.15036568 -0.4530765 0.17043525 -0.26488334 0.042370606 -0.014381321 0.27039495 -0.14992528 -0.5062906 -0.17642716 -0.13343634 -0.026992304 0.11527996 0.018284254 0.04515147 -0.44944647 0.023613164 0.25528792 -0.26790336 -0.35060832 0.6809879 -0.12878722 -0.41252786 0.44371575 -0.7535986 0.049165577 0.14537556 -0.28152737 0.37594298 0.025965119 0.28733602 0.11839599 -0.31959316 -0.74471223 -0.51477194 0.23872836 0.33406687 0.38168034 -0.031457677 -0.042504862 0.3693329 -0.41619825 0.23897254 -0.2217796 0.18770237 0.08457347
745 -1.132341 -0.66398686 -0.35301134 -0.010392701 -0.025424344 0.03316799 0.6280866 0.16414505 -0.36275685 1.0567536 0.39611408 -0.32839411 0.6783773 -0.54074025 -0.036510177 -0.43917817 0.25154284 -0.4778147 -0.36923495 0.14053468 -0.37629852 -0.30558592 0.37639225 0.6043242 -0.9667727 -0.5648605 0.36010352 0.9631802 0.8638536 -0.36342075 0.39689395 -0.5286137 -0.11461446 -0.61414665 -0.00456976 1.115539 0.37508228 -0.73710275 -0.2244539 0.13003452 -0.09333442 0.14034995 -1.286431 -0.7563776 -0.4730929 -0.40487605 -0.34786883 0.3161139 -0.54202086 0.14288881 -0.53769624 0.22094867 0.036655057 -0.30975232 0.3384605 -0.20555688 -0.21999156 -0.18399175 -0.38946444 -0.19084497 0.2526842 0.3424011 0.75815904 -0.16060898
1059 -0.0096499175 -0.3069031 -0.27210447 0.25290558 -0.32555836 -0.22395764 0.2716607 -0.2035233 0.13921787 0.20015477 -0.15418272 -0.2175196 0.5134711 -0.23859696 -0.042289827 -0.41413653 -0.24320783 -0.38878146 -0.22150661 -0.4110592 -0.010674289 -0.2383678 0.12888297 0.2607073 0.16449356 0.072003104 -0.57726043 -0.22635853 -0.21151145 0.11045849 0.20979924 0.02190981 0.25776264 -0.66847736 -0.14364524 0.27851057 -0.45695236 -0.51040655 0.5839723 -0.40223378 -0.5434218 0.4465952 -0.8055871 0.16346727 0.015648138 -0.27108163 0.36834097 -0.123674974 0.5969112 0.31435212 -0.15873712 -0.7866064 -0.16058016 0.26895678 0.020397255 0.25728703 0.028002264 -0.21588737 0.2742491 -0.47812828 0.20819794 -0.19217154 0.07596684 0.11148144
353 -0.15015356 0.42617896 -0.13229536 -0.1809745 -0.12455721 0.51859164 -0.21697591 -0.43095377 -0.43015262 0.14751913 -0.3885139 -0.09371674 0.5919491 -0.45629242 -0.050016552 0.16850437 -0.38894498 -0.05952061 -0.2244991 -0.11239314 -0.07715119 -0.15910134 -0.21029565 -0.14437492 -0.36326033 0.18115453 0.618471 -0.15940359 0.2599304 -0.19680473 -0.20389135 -0.13023005 0.045734443 -0.0326431 -0.005666798 0.9100425 0.03787379 -0.04172227 0.121890195 -0.5596697 -0.6573899 0.49474946 -0.4568541 0.15016255 0.28474474 0.18807763 1.1144229 0.25699848 0.020376556 0.42872718 0.4492357 -0.39505464 -0.43787143 0.08888684 0.4215622 -0.28781742 0.289299 -0.2955681 -0.22572248 -0.063623734 0.16390838 -0.5924942 -0.10656369 -0.50554806
1622 0.05742252 -0.36763537 -0.4215957 0.0587275 -0.37991652 -0.19738388 0.2520061 -0.24960145 0.1302987 0.38616407 -0.0932777 -0.035885222 0.6933467 -0.23614794 -0.09592321 -0.4868719 -0.26796004 -0.47604504 0.0027235055 -0.6066596 -0.016710768 -0.20537977 0.038450573 0.18037364 0.11484636 0.02707234 -0.60209906 -0.16360514 -0.19489814 0.009595839 0.133168 -0.07454228 0.23145951 -0.52534294 -0.27864495 0.22201358 -0.38561106 -0.25892833 0.551495 -0.25141326 -0.60026765 0.5357008 -0.7176648 0.15233412 0.10380864 -0.32302883 0.4907184 -0.049449988 0.49202338 0.2255542 -0.21117581 -0.7594982 -0.1638551 0.21479876 0.17332466 0.21598554 0.16481464 -0.19524756 0.20372604 -0.43386072 0.37930498 -0.12745386 0.0023156581 0.05759038
1471 -0.108744964 0.031405598 -0.018300492 0.14783627 -0.49406898 0.109101616 0.1358189 0.15109944 0.14809185 0.41186076 -0.16643757 -0.13544606 0.53605586 -0.33575213 -0.10527086 -0.3897073 -0.09870572 -0.44580546 -0.24964318 -0.64021873 0.0051727495 -0.0379928 0.014142602 0.048410628 0.08855076 0.04015659 -0.5766238 0.019135585 -0.23139752 -0.15268207 -0.022300633 -0.11043004 0.1666027 -0.4054912 -0.27489766 0.29098848 -0.42371783 -0.28999254 0.6960586 -0.26483417 -0.7343631 0.22173719 -0.63143754 0.134342 0.108748354 -0.27558336 0.39887503 -0.16516672 0.42984587 0.17298308 -0.39619163 -0.6966626 -0.4898518 0.32043484 0.07282015 -0.0046054637 0.20197582 -0.033732776 0.0729528 -0.492331 0.25095433 -0.076957926 -0.07326663 0.54621345
694 -1.3424358 -0.49151635 -0.01548822 -0.026658129 -0.10629239 -0.12117202 0.58616894 0.2790565 0.039540835 1.2047018 0.4930998 -0.543102 0.70910406 -0.5605815 0.06650855 -0.24762475 -0.29730567 -0.3562709 0.014501832 0.13082916 -0.5021165 -0.3498965 0.2843606 0.39738286 -1.0608258 0.012696511 0.45143938 1.0334044 0.7620764 -0.4740814 0.29560962 -0.7233355 -0.0026317064 -0.44771755 0.4101862 0.8326274 0.41336176 -0.63088477 -0.059098333 0.3243485 0.11814629 0.06989641 -1.3839121 -0.552978 -0.67159927 -0.50930697 -0.020397339 0.1429697 -0.8231043 0.28936678 -0.23657995 0.05252305 -0.15456188 -0.24429975 0.1833581 -0.114418164 0.251736 0.043121323 -0.5227773 -0.31959602 0.0053668935 0.13645194 1.1615003 -0.5588272
1610 -0.044490732 -0.027424471 -0.22275607 0.16702032 -0.36389542 -0.08590023 0.18645714 -0.012774769 0.16655537 0.45458516 -0.15082225 -0.06754261 0.60849774 -0.24664174 -0.1159456 -0.39897722 -0.24951603 -0.3197133 -0.19695932 -0.5807384 0.071605094 -0.17679645 -0.09042699 0.1755647 0.026775766 0.12210976 -0.5773972 -0.20554605 -0.21491218 -0.104996726 0.016849061 -0.19103377 0.098786205 -0.42549866 -0.17959459 0.42068848 -0.4041859 -0.40731636 0.6676578 -0.36694002 -0.67433596 0.36767796 -0.75596863 0.012406648 0.097391225 -0.32424274 0.27671358 -0.074848555 0.49998868 0.13898188 -0.44841743 -0.6360772 -0.38315523 0.21795288 0.111924276 -0.014878534 0.22456306 -0.07889795 0.086565174 -0.64786965 0.22584122 -0.05319591 -0.2061512 0.3518824
1277 0.13851325 0.44988337 -0.735984 0.6127047 -0.72728866 0.14784715 0.1990213 -0.17766029 -0.38748705 0.2652857 0.41039398 -0.029327914 0.4469851 -0.65649676 -0.045677535 -0.31658807 -0.7274537 0.4627148 -0.7197321 -0.12370996 0.06742925 0.31440255 0.21214516 -0.3831005 -0.1915918 -0.48817 0.06583828 0.41939762 0.024511568 -0.025062164 0.31321242 -0.44510806 -0.058595326 -0.5385565 0.08578014 -0.25700626 -0.22009331 -0.042414226 0.26998544 -0.106876075 -0.35054997 0.21961905 -0.5498173 0.91545534 -0.03695565 0.26719347 -0.11442907 0.6030243 -0.22316483 0.041650344 0.7581835 -0.67767787 -0.3346414 0.53277344 0.27459288 0.06906784 0.028372426 0.0123210475 -0.10689954 -0.58024657 0.121591724 -0.5779042 -0.09365531 0.055842765
3051 -0.25237378 -0.86152184 0.26346385 0.0117365895 -0.29184562 0.19253269 0.62920517 0.08285057 -0.33707243 0.23969404 0.32832572 -0.00071823626 0.17897415 -0.5418109 -0.28493142 0.5369054 -0.55847675 -0.052731626 0.465868 -0.10148797 -0.012664459 0.8884309 -0.35684037 -0.12156159 0.32525063 -0.29986688 0.30027333 -0.17054035 0.1344894 -0.44582635 -0.058886636 0.35114455 -0.8684496 -0.48609594 -0.7462768 0.18695657 0.03794595 -0.35742298 -0.14678335 -0.6310845 0.14007029 -0.12313216 -0.6255407 0.111352466 0.34918898 -0.09849397 -0.23676223 -0.06725275 0.1466343 0.1191032 0.023334807 -1.0551285 0.14829372 -0.23677436 0.021401128 -0.14168496 -0.027435144 0.45513868 -0.047840074 0.1070525 -0.19384894 -0.26224872 0.5818901 0.17727618
3611 0.07333403 -0.38037196 -0.29452997 -0.28208837 -1.1125146 0.1820777 0.07994263 -0.17501989 -0.64151025 -0.072273485 -0.12366037 -0.9184898 0.77592504 0.62699014 0.06964249 0.5273027 -0.74942446 -0.19435482 0.36579525 -0.14067821 -0.7397906 -0.29882547 0.8723832 0.05106432 -0.18483151 0.14385995 -0.4814222 -0.32894993 0.56103534 0.18311732 0.48007464 0.5137986 -0.7601832 -0.5915641 0.28143236 0.5818348 0.95614 0.59096724 -0.40925795 -0.26442185 0.6514196 0.13776195 -0.5809623 0.111824505 0.2550693 -0.5636826 -0.15877253 -0.23489292 -0.1315138 0.09223698 0.071562074 -0.28190604 -0.7116179 0.40384987 0.10255571 -0.029909952 0.27844545 -0.32033113 -0.6420106 -0.59098107 -0.03310925 0.25440598 -0.6485826 0.24376228
1941 0.060548116 -0.7192455 -0.19118804 -0.047113687 -0.42375347 -0.032438662 -0.1361217 -0.19956355 -0.17547408 0.26211548 -0.039568346 0.16844538 0.49489647 -0.57439303 -0.1426821 0.32473466 0.5497565 0.0706361 -0.4846603 0.3781552 -0.27053547 -0.6192214 0.2759715 -0.17542353 -0.23091012 -0.22554368 0.013482175 -0.16709223 -0.2932665 0.341185 -0.43046638 0.032628767 -0.19489084 0.08781148 -0.32986125 0.43934458 -0.030509412 0.4380409 -0.21473718 0.0129593685 -0.003189434 -0.30203325 -0.6989588 0.1727796 -0.12677577 0.26217157 -0.24128222 -0.18114711 0.28362003 0.16856408 -0.13796748 -0.02460519 -0.498535 0.12998465 0.2322132 0.5066266 0.4593435 0.17907797 0.049054075 -0.13748224 -0.74747056 -0.4224248 0.12977898 -0.1828817
2730 -0.0040610125 -0.530944 0.4125942 -0.052507427 0.20687097 0.17779148 0.4952225 -0.4290935 -0.71267766 0.30740666 0.5102044 0.14306903 -0.09233729 -0.30688125 -0.33420599 0.2866732 -0.29976502 0.3286416 0.43939647 -0.23151155 -0.1188715 0.03163636 0.06347725 0.25800288 0.3153461 -0.0078016217 0.21893735 0.0840575 -0.017978773 -0.15536596 0.15583064 0.159202 -0.94379663 -0.6277413 -0.5442818 0.41779032 0.59997284 -0.41527292 -0.13574333 -0.18328762 -0.502255 0.71092016 -0.2501363 0.5098083 0.7437412 0.043927733 -0.39327377 0.72462696 0.0262534 -0.1024754 -0.6404869 -0.59230083 -0.7006818 0.010106689 -0.29413885 -0.30849057 0.21260196 0.57773596 -0.17713167 0.21794415 -0.17811553 -0.22365184 0.82567996 0.45456663
925 0.19151448 -0.40621015 -0.19232446 -0.07755504 -0.32313398 -0.2858837 0.39568824 -0.12137848 0.15146022 0.19660388 -0.25512666 -0.27229753 0.5314607 -0.16992506 -0.18020158 -0.37994453 -0.15544792 -0.4182738 -0.26422057 -0.39882463 0.10119096 -0.2166349 -0.026085371 0.12151987 0.18427937 0.12340827 -0.5628853 -0.16717589 -0.03017399 -0.043113783 0.2441499 0.033211388 0.3062004 -0.5824586 -0.010235495 0.3625742 -0.38539797 -0.38682696 0.6689018 -0.22886959 -0.5075964 0.492714 -0.816226 0.18884186 0.0014257978 -0.26187038 0.36858168 -0.13566977 0.41676432 0.30655724 -0.15004627 -0.782331 -0.32357883 0.4494719 0.04596083 0.35013434 0.024889981 -0.18753667 0.26128638 -0.37918982 0.24123767 -0.28856045 0.19748184 0.11890748
363 -0.13056108 0.5382158 -0.14540312 -0.103621654 -0.028973266 0.3541293 -0.31576693 -0.22602771 -0.23466495 0.11177467 -0.3226401 -0.18532479 0.82608664 -0.42520356 -0.01922086 0.13974516 -0.41435814 -0.029607916 -0.15968688 -0.057309464 -0.14223002 -0.22381368 -0.31778046 -0.37521333 -0.32970265 0.32242015 0.63419485 -0.20140705 0.0909688 -0.29522657 -0.28609234 -0.015067141 0.08983535 -0.054159388 -0.016843108 1.0176779 0.04425733 -0.2091162 0.15712523 -0.46599224 -0.6647614 0.5284286 -0.56685853 0.07415828 0.31519186 0.093869135 0.88103104 0.13920458 -0.09766705 0.2830814 0.64663213 -0.456174 -0.49200767 0.075710036 0.074010015 -0.18616185 0.3984905 -0.33361918 -0.15772481 0.010045069 0.18118806 -0.59959 0.17121492 -0.4674781
1184 0.01615672 -0.13876508 -0.38400838 0.17896113 -0.45472947 -0.42948416 0.19702043 -0.21195227 0.12702772 0.31155893 -0.27078897 -0.30019113 0.61839837 -0.24075836 -0.1489162 -0.31653664 -0.3619635 -0.30092207 -0.20785397 -0.45520166 0.019150926 -0.14435834 -0.005070812 0.27203003 0.13260941 0.26454866 -0.4399183 -0.27571583 -0.1541594 0.099514924 0.13969238 -0.14433083 0.24256925 -0.63314736 -0.19539435 0.43940577 -0.48408177 -0.4728966 0.529908 -0.30212498 -0.6094602 0.45480207 -0.6707817 0.16251193 0.068720154 -0.20759821 0.32486156 -0.04316571 0.59793216 0.23900412 -0.17118785 -0.80592453 -0.002299853 0.3784647 -0.055783838 0.2430014 0.15603442 -0.243527 0.24256225 -0.45764217 0.15415831 -0.076759525 0.003751183 0.2040225
1839 -0.05565967 -0.08586482 -0.1751889 0.2487378 -0.4354091 0.080616705 0.20943764 -0.0054277442 0.031532448 0.51688325 -0.17042178 -0.16855729 0.7318597 -0.19287248 -0.20197988 -0.40434238 -0.21865693 -0.43893468 -0.3646259 -0.70856255 0.14256538 -0.07663568 -0.08509051 0.22202848 -0.17262305 0.1799158 -0.59595335 -0.1612511 -0.34837848 0.032643497 0.07482195 -0.1376311 0.17931333 -0.31653035 -0.19030097 0.40412286 -0.3622873 -0.2919264 0.7065887 -0.38599432 -0.7412996 0.09478381 -0.6692627 0.065954916 0.18543515 -0.42221728 0.27960733 0.005454802 0.49581048 0.010784997 -0.41905114 -0.55122256 -0.39501497 0.14120726 0.10106781 0.06062438 0.045943175 0.06818874 0.13003513 -0.53772575 0.14180814 0.01064704 -0.22348358 0.51181877
697 -0.9128809 -0.5446702 -0.33286244 -0.3593457 0.19506998 -0.4085171 0.78694063 0.6118709 -0.13018458 1.1998203 0.40067586 -0.43846616 0.4356668 -0.6615728 -0.10367188 0.09305105 -0.15765654 -0.44757363 0.15817122 0.19027019 -0.12256302 0.11532644 0.5627369 0.3940391 -0.9468619 0.01639739 0.3889302 0.54829717 0.5390042 0.29480913 0.4341955 -0.46191445 -0.076845855 -0.48804447 0.3663672 1.0968219 0.17431727 -0.6116489 -0.011324763 0.072507694 0.13852106 -0.027395254 -1.3447728 -0.35690752 -0.39275515 -0.067596674 -0.25570095 0.3707022 -0.8896496 0.08382441 -0.3621922 0.19575644 -0.110493645 -0.19943899 0.11704958 -0.1165654 0.099191524 -0.5018471 -0.50384355 -0.5815393 -0.36804128 -0.07084765 0.6871749 -0.4114032
1551 0.23872519 -0.16933583 -0.11756115 -0.0480212 -0.21677695 0.093041636 0.36816147 -0.14228813 0.11601342 0.6254347 -0.12065973 -0.061653096 0.54875344 -0.26043597 -0.2885067 -0.51668614 -0.35893774 -0.4055097 -0.3291131 -0.4746727 0.2381951 -0.13602263 -0.2042752 0.14832129 0.010814177 0.15313362 -0.68062174 -0.30643114 -0.1465069 -0.04997768 -0.06270234 -0.121415235 0.16062582 -0.5514874 -0.09586258 0.4108291 -0.29468188 -0.34788382 0.57532793 -0.23595676 -0.5431409 0.31569427 -0.8105186 0.03880775 0.11965497 -0.35105112 0.26329806 -0.009669427 0.4711854 0.019657863 -0.2588498 -0.7677653 -0.42660975 0.037606232 0.34790087 0.22079241 0.17105886 0.14608026 0.1714003 -0.5288889 0.25019166 0.01655088 -0.274509 0.21968222
513 -0.078765094 0.061355874 -0.32879707 0.07137045 -0.015365925 0.7031159 -0.3830367 -0.1732148 -0.6188424 0.29056486 -0.15064791 -0.4549598 0.42653236 -0.4962664 0.15484458 0.18444672 -0.40762985 -0.26869917 0.20789917 -0.027185684 -0.47430816 -0.13612898 -0.35227597 -0.36705834 -0.63716304 -0.2674813 0.6563095 -0.5399118 0.38555798 -0.26811123 -0.041378044 0.39931038 0.2829166 -0.28624454 0.23913811 1.1594828 -0.1703831 -0.13369653 0.44944325 -0.6683805 -0.37209383 0.50902206 -0.38763598 0.23123571 -0.094716825 -0.11764889 0.67305374 0.64125556 -0.25262195 -0.024886025 0.84397054 -0.15153633 -0.42727727 0.059585247 0.28824928 -0.27188674 0.7978115 -0.2833907 0.08534115 0.22764893 0.12002691 -0.7205844 0.16909797 -0.12022104
553 0.016990999 0.11494455 -0.4257561 0.17994726 0.05968163 0.44125703 -0.4518671 -0.2503086 -0.5042668 0.18324733 -0.14323239 -0.5866472 0.30531585 -0.6009668 0.008983192 0.30099383 -0.36541924 -0.11040864 0.37390673 -0.036177464 -0.46280906 -0.12104026 -0.20301135 -0.29422835 -0.6196169 -0.116243094 0.62593883 -0.37878236 0.20889305 0.063415416 -0.31720054 0.3831643 0.1130429 -0.46403822 -0.03403527 1.1531065 -0.0984205 -0.051643025 0.35287547 -0.48346463 -0.47427887 0.41239467 -0.30588472 0.019846065 -0.06281973 -0.18744878 0.5040243 0.17729187 -0.32255858 -0.34589228 0.77518874 -0.16898823 -0.35263228 0.12788638 0.08389434 -0.3259584 1.0061768 -0.43290427 -0.024175454 -0.086689286 0.15532294 -0.7890498 0.15894826 -0.24287955
2716 -0.12211954 -0.5806865 0.32637015 0.0058198287 -0.33813423 0.44726282 0.507312 0.46185514 -0.0096420245 0.38483772 0.24996842 -0.30352464 -0.27734414 -0.54671365 -0.54228604 0.43859157 -0.7550418 0.36758646 0.17251332 -0.12587826 -0.1607605 0.3103643 -0.07601058 0.27269074 0.26083347 -0.10385604 0.43736514 -0.0018622874 0.23517041 -0.34793377 -0.34768376 0.4725388 -1.2845746 -0.5047157 -0.8562076 0.21692723 -0.06289948 -0.2926133 -0.017197413 -0.5202716 0.15972327 0.0029952007 -0.44599235 0.16385216 0.5967637 0.20307435 -0.40839818 -0.003146051 -0.059418134 0.19305441 -0.1857831 -1.0055083 -0.29475525 -0.05153253 -0.32972252 -0.06348169 0.04593367 0.3075934 0.04583717 -0.004611934 0.13027498 -0.12020021 0.63707393 0.03061546
1577 -0.18370955 -0.4611314 -0.014644965 0.103312746 -0.44958863 0.04459593 0.038674682 -0.08603645 0.008803378 0.53516585 7.698712e-06 0.23749346 0.43788612 -0.10385253 0.3549906 -0.16856866 0.13408864 0.58903027 -0.39925987 0.34153113 -0.5104201 -0.49010804 -0.08281714 0.17048056 -0.105202086 -0.4041732 -0.297871 -0.30551985 -0.30007434 0.24879818 -0.2896576 -0.2066479 -0.37409854 0.03126304 -0.03445779 0.2432079 -0.24474093 0.39254713 -0.35240752 0.012050219 -0.022222647 -0.21830864 -0.59046626 0.0024737369 -0.011518472 0.03896589 0.45322433 -0.074194945 -0.028067812 -0.045427613 -0.60660595 -0.4753346 -0.6789608 -0.028405935 0.43932825 0.550149 0.40285015 0.09365732 0.32445493 0.28504065 -0.4794377 -0.23089315 0.30250287 -0.0617185
2719 -0.047650587 -0.65191287 0.12141235 -0.09640596 -0.4229673 0.0036741577 0.64541125 -0.10133941 -0.119951986 0.16562647 0.22282043 -0.12744217 0.44803077 -0.6738602 -0.27740902 0.7481411 -0.50334597 0.18765128 0.2877027 -0.39122823 -0.3472489 0.78222525 -0.3680947 -0.18922032 0.22855477 -0.4194419 0.18188472 0.14985028 0.25084877 -0.41405094 -0.010701598 0.51159614 -0.8423447 -0.33940607 -0.7515889 0.16057445 -0.0425395 -0.71027553 -0.22752501 -0.51370275 0.30213198 -0.2741312 -0.6418343 -0.31166813 0.25238067 0.021019455 -0.2193411 0.031870075 0.32841647 -0.085638106 0.13705128 -1.0990846 0.23506404 -0.13333485 -0.12720498 -0.2556818 -0.1500916 0.5398409 -0.07929669 0.062299963 -0.059491802 -0.37477297 0.5836756 0.21844445
